svm_type c_svc
kernel_type linear
nr_class 2
total_sv 3290
rho -0.7775703419026188
label 1 -1
nr_sv 2076 1214
SV
0.28852656884298095 109:1.0 1692:1.0 
1.0 2533:1.0 2914:1.0 
1.0 1243:1.0 1596:1.0 
0.8610110971002325 1766:1.0 2744:1.0 
1.0 15:1.0 2067:1.0 
0.2091843197595964 1704:1.0 2050:1.0 
0.9737970586256766 575:1.0 1530:1.0 
0.4073417352230493 2427:1.0 2469:1.0 
0.4075355911707609 1708:1.0 2470:1.0 
0.20615020788026803 183:1.0 347:1.0 
0.19040090917919253 504:1.0 1858:1.0 
0.11144614219665527 1846:1.0 2380:1.0 
0.11103214161400843 1820:1.0 2353:1.0 
0.11183672776764073 547:1.0 1021:1.0 
1.0 172:1.0 1427:1.0 
1.0 1694:1.0 2274:1.0 
0.08849779322542614 1501:1.0 2935:1.0 
0.435845407595931 600:1.0 867:1.0 
0.11120904773970339 1512:1.0 2022:1.0 
1.0 1792:1.0 2623:1.0 
0.11130190866157216 578:1.0 2634:1.0 
1.0 421:1.0 1253:1.0 
0.8123378863680906 1431:1.0 1999:1.0 
1.0 1646:1.0 2910:1.0 
1.0 89:1.0 135:1.0 
0.3507436423111289 2854:1.0 2934:1.0 
0.07401206931383317 141:1.0 2131:1.0 
0.07397851386601936 1227:1.0 2398:1.0 
0.24203403561594916 2015:1.0 2587:1.0 
1.0 1868:1.0 2248:1.0 
0.11116281531653152 975:1.0 1401:1.0 
0.04407665455168719 1489:1.0 1811:1.0 
0.05568387102867883 795:1.0 1066:1.0 
0.4073799229767153 237:1.0 1398:1.0 
0.7409997829567928 774:1.0 1286:1.0 
1.0 2381:1.0 2573:1.0 
0.4884920650586837 213:1.0 1132:1.0 
0.36657442491672154 1810:1.0 2201:1.0 
0.7406896702504193 956:1.0 1298:1.0 
0.1114588577127825 229:1.0 746:1.0 
0.07413404218529843 2014:1.0 2459:1.0 
0.40558745108108946 2959:1.0 2986:1.0 
0.40790731181678125 151:1.0 877:1.0 
0.1336406214822869 231:1.0 1022:1.0 
0.3532599368743623 101:1.0 2472:1.0 
1.0 799:1.0 1095:1.0 
1.0 1753:1.0 2998:1.0 
1.0 551:1.0 946:1.0 
0.24425675950460146 2759:1.0 2764:1.0 
0.23970977742447022 1125:1.0 1384:1.0 
1.0 884:1.0 2670:1.0 
0.38148282781317766 538:1.0 2921:1.0 
0.0734570813212318 438:1.0 2797:1.0 
0.5244944600705432 1534:1.0 1646:1.0 
0.4073626194104839 679:1.0 2151:1.0 
1.0 640:1.0 1516:1.0 
0.8606796753132513 649:1.0 1410:1.0 
0.30548753836919373 2502:1.0 2605:1.0 
0.04506323175716867 933:1.0 2762:1.0 
0.11132201347158291 1108:1.0 2559:1.0 
0.40725160157176116 1247:1.0 1876:1.0 
0.05563051297587027 537:1.0 795:1.0 
1.0 157:1.0 913:1.0 
1.0 1491:1.0 1760:1.0 
0.9989574898366778 416:1.0 907:1.0 
0.01172025296732468 976:1.0 2441:1.0 
0.4587369021224376 1432:1.0 1526:1.0 
0.6112174031246287 1852:1.0 2724:1.0 
1.0 2202:1.0 2924:1.0 
1.0 1947:1.0 2940:1.0 
0.08845348103866119 2230:1.0 2918:1.0 
0.11111549625240852 359:1.0 1231:1.0 
1.0 1905:1.0 2089:1.0 
1.0 193:1.0 2696:1.0 
0.24508915647364665 1566:1.0 2827:1.0 
0.5146962978658882 521:1.0 816:1.0 
0.4887093729323545 847:1.0 2689:1.0 
0.11133548680781125 131:1.0 1592:1.0 
0.8878704292233941 1010:1.0 1485:1.0 
0.04384022489064385 453:1.0 1246:1.0 
1.0 1675:1.0 2576:1.0 
0.11174570869894393 2202:1.0 2544:1.0 
1.0 301:1.0 1162:1.0 
1.0 921:1.0 2597:1.0 
0.9983451937285615 470:1.0 756:1.0 
1.0 418:1.0 450:1.0 
1.0 346:1.0 356:1.0 
0.1077872693408804 811:1.0 2198:1.0 
0.2068378866472468 457:1.0 702:1.0 
0.6112148316132855 662:1.0 2507:1.0 
1.0 142:1.0 189:1.0 
0.11135156499808474 449:1.0 1303:1.0 
1.0 1423:1.0 2100:1.0 
0.40407011616884125 2714:1.0 2904:1.0 
0.055461332296318056 23:1.0 795:1.0 
0.11166173021163134 369:1.0 2919:1.0 
0.055846636375177644 1728:1.0 2332:1.0 
0.9993770767964214 2202:1.0 2430:1.0 
1.0 967:1.0 2049:1.0 
1.0 849:1.0 2576:1.0 
0.4073890275687808 1290:1.0 2174:1.0 
1.0 629:1.0 1033:1.0 
0.6113705130893049 1217:1.0 1240:1.0 
0.6110027115728371 569:1.0 1456:1.0 
1.0 1057:1.0 1667:1.0 
0.40753587303447025 1166:1.0 1336:1.0 
0.1113119794756405 271:1.0 2044:1.0 
1.0 545:1.0 2241:1.0 
0.11121468702207093 1357:1.0 1640:1.0 
0.28916540263560514 55:1.0 786:1.0 
0.11092339195477818 2802:1.0 2930:1.0 
0.01722259752991598 1146:1.0 2350:1.0 
0.4041337474749993 151:1.0 1945:1.0 
0.28858128500920327 1985:1.0 2550:1.0 
0.40752101723103323 2241:1.0 2789:1.0 
1.0 931:1.0 1274:1.0 
1.0 852:1.0 2357:1.0 
0.1834606873801214 1059:1.0 2134:1.0 
0.25378687487729634 2015:1.0 2754:1.0 
0.24405301059954917 2584:1.0 2933:1.0 
0.11080289372290067 1655:1.0 2071:1.0 
0.2090933948817323 2522:1.0 2649:1.0 
0.24226603909062946 680:1.0 2304:1.0 
0.6112612807321227 1143:1.0 1961:1.0 
0.17323041167022138 181:1.0 677:1.0 
0.5556069547158333 1925:1.0 2414:1.0 
0.6885961392573853 208:1.0 2629:1.0 
0.17597469669362248 2238:1.0 2597:1.0 
0.48479780215108925 1923:1.0 2940:1.0 
0.4448639576409182 1868:1.0 2952:1.0 
0.4076316043534081 2056:1.0 2884:1.0 
0.07413965267293335 1312:1.0 2623:1.0 
0.7781916016635559 532:1.0 2059:1.0 
0.36122478419379006 28:1.0 1878:1.0 
0.11447853921912174 2187:1.0 2479:1.0 
1.0 170:1.0 1361:1.0 
0.7550880396321782 119:1.0 2944:1.0 
1.0 2027:1.0 2454:1.0 
0.610743312579532 583:1.0 1128:1.0 
0.09820623715552862 383:1.0 1150:1.0 
0.05545688053300027 84:1.0 2332:1.0 
0.11131936044163188 539:1.0 714:1.0 
1.0 249:1.0 313:1.0 
0.6112628304887793 1476:1.0 2181:1.0 
1.0 106:1.0 1255:1.0 
0.9561126874248802 1322:1.0 2552:1.0 
0.0014439602991927203 1437:1.0 2542:1.0 
0.6112188670515356 2577:1.0 2608:1.0 
1.0 1299:1.0 1617:1.0 
0.11131957239822685 1743:1.0 2598:1.0 
0.07384852447023674 656:1.0 1019:1.0 
0.07437878557548944 696:1.0 1080:1.0 
0.6425329172366487 2653:1.0 2972:1.0 
0.5010359620898841 2083:1.0 2609:1.0 
0.5556069547158333 891:1.0 1925:1.0 
0.4994656623215642 2183:1.0 2534:1.0 
0.6110955714754048 42:1.0 185:1.0 
1.0 1039:1.0 1245:1.0 
0.26302348708377227 377:1.0 1125:1.0 
1.0 1050:1.0 1109:1.0 
0.574205502020555 2155:1.0 2797:1.0 
1.0 1793:1.0 1960:1.0 
0.3609909354447138 1443:1.0 2158:1.0 
0.11144475041323773 1199:1.0 2600:1.0 
0.11131443022791015 479:1.0 574:1.0 
1.0 166:1.0 1401:1.0 
0.11129584953324242 1866:1.0 1916:1.0 
0.08904886906041148 274:1.0 809:1.0 
1.0 423:1.0 1154:1.0 
0.9569537420910491 94:1.0 546:1.0 
0.4073409475434118 1063:1.0 2279:1.0 
0.074140840662488 1821:1.0 2459:1.0 
0.4892015597808735 119:1.0 925:1.0 
0.07395638934181362 2313:1.0 2860:1.0 
1.0 2406:1.0 2767:1.0 
0.07400162847034453 322:1.0 371:1.0 
0.8117451364795972 1129:1.0 2196:1.0 
1.0 674:1.0 908:1.0 
0.30609305089387906 1834:1.0 2176:1.0 
1.0 1743:1.0 2282:1.0 
1.0 2749:1.0 2990:1.0 
0.11133959123275886 2430:1.0 2739:1.0 
0.6024905298775131 1189:1.0 2048:1.0 
0.436333175169736 128:1.0 2091:1.0 
0.23550920532544095 2148:1.0 2369:1.0 
0.40729985698866433 2098:1.0 2138:1.0 
0.11104711316497903 1777:1.0 2863:1.0 
0.28886951494804447 257:1.0 1170:1.0 
0.1264657560416763 509:1.0 1012:1.0 
0.15517197025171803 423:1.0 1933:1.0 
0.3564370706963338 1692:1.0 2153:1.0 
0.8132522613523868 1573:1.0 1863:1.0 
1.0 724:1.0 1122:1.0 
1.0 555:1.0 689:1.0 
0.2887419379300701 1988:1.0 2503:1.0 
0.07378537846780348 101:1.0 535:1.0 
1.0 1177:1.0 2528:1.0 
0.4077249331352209 2102:1.0 2469:1.0 
1.0 1059:1.0 2906:1.0 
0.6112235535576241 1181:1.0 1697:1.0 
0.35578387387591215 1755:1.0 1988:1.0 
0.11152659615603613 1930:1.0 2795:1.0 
0.44464252670928756 1554:1.0 1993:1.0 
0.17347139703277958 1346:1.0 2854:1.0 
0.40000374022032315 557:1.0 2720:1.0 
1.0 110:1.0 1424:1.0 
0.48930778335571845 965:1.0 2993:1.0 
1.0 2022:1.0 2541:1.0 
0.9994746031128438 862:1.0 1174:1.0 
0.02536615970206385 249:1.0 734:1.0 
1.0 1131:1.0 1372:1.0 
0.6109633631407212 320:1.0 1212:1.0 
0.6887964601258504 2108:1.0 2318:1.0 
1.0 2264:1.0 2294:1.0 
0.6111339330673218 1482:1.0 2640:1.0 
0.40740844191870274 238:1.0 275:1.0 
0.7406496703951295 315:1.0 2402:1.0 
1.0 279:1.0 1504:1.0 
0.24470754320987612 2255:1.0 2820:1.0 
0.6951060040164081 1769:1.0 2378:1.0 
0.381943837372804 1864:1.0 2579:1.0 
0.7495331150423731 296:1.0 1412:1.0 
0.4931675051478791 514:1.0 1068:1.0 
0.2892393577831458 384:1.0 1720:1.0 
0.12331374355556673 734:1.0 2770:1.0 
1.0 135:1.0 809:1.0 
1.0 107:1.0 2332:1.0 
0.30539236316342433 1085:1.0 2037:1.0 
1.0 273:1.0 639:1.0 
0.4073324092447099 66:1.0 1166:1.0 
0.6885895478904667 1503:1.0 1838:1.0 
0.8881634555812103 861:1.0 2400:1.0 
0.733827756422218 1459:1.0 2772:1.0 
0.48893258621493874 258:1.0 1448:1.0 
0.07388205047226473 988:1.0 2129:1.0 
0.6112225627592146 1709:1.0 2508:1.0 
0.11101556731764736 921:1.0 2337:1.0 
0.4073136835721495 244:1.0 2055:1.0 
0.7406873906094417 44:1.0 1034:1.0 
0.3551806893360817 644:1.0 2553:1.0 
0.7551291460584222 258:1.0 1459:1.0 
0.11120338961550236 189:1.0 2630:1.0 
0.156406532616269 1214:1.0 2629:1.0 
0.645289168845264 1678:1.0 2965:1.0 
0.40691302838572524 191:1.0 480:1.0 
1.0 14:1.0 98:1.0 
1.0 835:1.0 2676:1.0 
0.11066923111863408 2407:1.0 2873:1.0 
0.3608419450732704 245:1.0 2693:1.0 
0.985771366814941 235:1.0 407:1.0 
0.7000678832334332 293:1.0 1008:1.0 
0.804116362815971 2649:1.0 2959:1.0 
0.13320024258101407 2716:1.0 2973:1.0 
0.11127343975435133 78:1.0 1407:1.0 
0.4077639794909358 1042:1.0 1662:1.0 
1.0 1234:1.0 2861:1.0 
0.062349708630304396 396:1.0 1141:1.0 
0.7406118095838841 1541:1.0 2771:1.0 
1.0 2394:1.0 2901:1.0 
0.24045525588688552 1469:1.0 2998:1.0 
0.08864194347294743 2118:1.0 2570:1.0 
0.14161910469339745 494:1.0 2492:1.0 
0.524606410851613 1346:1.0 1911:1.0 
0.8610777276125181 1418:1.0 2012:1.0 
0.0885746408920505 96:1.0 1213:1.0 
0.09605274622014445 2073:1.0 2375:1.0 
0.5331856480635998 2234:1.0 2636:1.0 
0.3609220678193234 602:1.0 1239:1.0 
0.9510538514388661 317:1.0 1150:1.0 
0.6438198296965512 1535:1.0 2898:1.0 
1.0 1894:1.0 2493:1.0 
0.7780012872967073 428:1.0 1922:1.0 
0.939268256950861 2381:1.0 2492:1.0 
1.0 2366:1.0 2462:1.0 
0.4433901092169263 54:1.0 
0.30520165295331286 1390:1.0 1814:1.0 
0.9579904172336657 1258:1.0 1395:1.0 
1.0 1761:1.0 2862:1.0 
1.0 38:1.0 528:1.0 
0.33301599202718846 2059:1.0 2962:1.0 
0.288897007258642 704:1.0 2286:1.0 
0.6112246705994755 629:1.0 2160:1.0 
1.0 1536:1.0 2786:1.0 
0.11121009349342983 842:1.0 2572:1.0 
0.38684585519618153 1499:1.0 2103:1.0 
0.2230646779670695 2400:1.0 2823:1.0 
1.0 1818:1.0 2868:1.0 
0.30561205226182586 912:1.0 1302:1.0 
0.48922076766632205 630:1.0 1828:1.0 
0.13317060613497006 1322:1.0 2013:1.0 
0.6112208724829938 1436:1.0 2821:1.0 
0.555239398365896 205:1.0 670:1.0 
0.0028310904578935647 2363:1.0 2966:1.0 
0.06470596966449577 1087:1.0 2330:1.0 
0.07417424159457572 1657:1.0 2314:1.0 
1.0 2330:1.0 2362:1.0 
1.0 2643:1.0 2686:1.0 
0.34788974622407226 2908:1.0 2934:1.0 
1.0 920:1.0 2496:1.0 
0.6112016767197881 1751:1.0 2028:1.0 
0.11089183092296079 2836:1.0 2923:1.0 
1.0 1057:1.0 1444:1.0 
0.06998004421255027 169:1.0 867:1.0 
0.7399998629798508 476:1.0 2083:1.0 
1.0 359:1.0 851:1.0 
0.4073711726189481 1856:1.0 2872:1.0 
0.4447248336070445 136:1.0 197:1.0 
0.11133156065750854 743:1.0 1190:1.0 
0.08169075588397781 86:1.0 87:1.0 
0.7081894569095072 218:1.0 690:1.0 
0.7408428133029603 2593:1.0 2719:1.0 
1.0 1920:1.0 2093:1.0 
0.435936729954544 522:1.0 1741:1.0 
0.11122683003294137 57:1.0 2628:1.0 
0.2439943316888685 361:1.0 2385:1.0 
0.3324943049932581 2203:1.0 2625:1.0 
0.6111800894141197 2274:1.0 2780:1.0 
0.07399166076112382 2536:1.0 2813:1.0 
0.7492934428122962 235:1.0 1433:1.0 
0.40773540545849674 145:1.0 1688:1.0 
1.0 2172:1.0 2510:1.0 
1.0 72:1.0 900:1.0 
0.2451855528508191 1644:1.0 2786:1.0 
0.7410675937677382 661:1.0 1511:1.0 
0.5079725911614007 167:1.0 2938:1.0 
1.0 1761:1.0 2077:1.0 
1.0 1245:1.0 1299:1.0 
1.0 773:1.0 1449:1.0 
1.0 153:1.0 2475:1.0 
0.05527964792380727 810:1.0 2674:1.0 
0.13371285340322492 1638:1.0 2951:1.0 
0.4075344920775732 855:1.0 1340:1.0 
0.0036126844012688564 1070:1.0 1945:1.0 
1.0 352:1.0 800:1.0 
0.1737490112852812 998:1.0 2311:1.0 
0.33390264035986067 1910:1.0 2231:1.0 
0.24505212280710809 1244:1.0 2857:1.0 
0.27794786922349285 1981:1.0 2793:1.0 
1.0 2410:1.0 2699:1.0 
0.05587530657169282 810:1.0 1242:1.0 
0.8131417019533095 733:1.0 1479:1.0 
0.29016854323674185 1167:1.0 2653:1.0 
0.36734522322367896 725:1.0 1737:1.0 
1.0 1794:1.0 2435:1.0 
0.9834201236083404 920:1.0 1163:1.0 
0.6112014731096098 253:1.0 1370:1.0 
0.8608075446050221 971:1.0 2473:1.0 
1.0 396:1.0 1221:1.0 
0.28949526885850146 2086:1.0 2312:1.0 
1.0 140:1.0 2276:1.0 
0.3609264990873121 299:1.0 2344:1.0 
0.418830713424274 579:1.0 2310:1.0 
0.40733977766188456 138:1.0 1379:1.0 
0.611378874740945 1134:1.0 2883:1.0 
1.0 715:1.0 2113:1.0 
1.0 2429:1.0 2539:1.0 
0.4589665580257357 1832:1.0 1864:1.0 
0.40727786967149787 1784:1.0 2241:1.0 
0.4074470370919845 626:1.0 844:1.0 
1.0 813:1.0 824:1.0 
0.35716400795699377 1237:1.0 2299:1.0 
1.0 1714:1.0 2343:1.0 
0.2411555790584121 1037:1.0 1942:1.0 
1.0 1288:1.0 1373:1.0 
0.10890728720207243 1601:1.0 2966:1.0 
1.0 62:1.0 333:1.0 
1.0 2309:1.0 2890:1.0 
0.7288410024123456 36:1.0 647:1.0 
0.11122618420104446 869:1.0 934:1.0 
0.9998365187239318 764:1.0 1628:1.0 
0.6110041165041828 585:1.0 2140:1.0 
0.611145982899121 90:1.0 1145:1.0 
0.6112232198087564 1210:1.0 2729:1.0 
0.08797381653745304 2295:1.0 2892:1.0 
0.4069991902988895 483:1.0 604:1.0 
0.5498752612958298 504:1.0 2506:1.0 
0.40738967276608196 625:1.0 1466:1.0 
0.0019901106602470964 206:1.0 1957:1.0 
0.6112262093273712 335:1.0 1216:1.0 
0.41337794044756915 1684:1.0 2046:1.0 
0.07021581656108458 312:1.0 867:1.0 
1.0 1918:1.0 2853:1.0 
0.611364999856189 1679:1.0 2042:1.0 
0.005276204036467946 2714:1.0 2747:1.0 
0.11106678753296195 2603:1.0 2927:1.0 
0.7407532260264404 1541:1.0 2657:1.0 
0.7363917221246807 1690:1.0 2561:1.0 
0.4995092863061011 1234:1.0 1371:1.0 
0.40747414358842204 1252:1.0 2065:1.0 
1.0 649:1.0 1476:1.0 
0.11141232310621896 1815:1.0 1817:1.0 
0.9447277938445667 1107:1.0 1280:1.0 
0.6113726902257814 767:1.0 1147:1.0 
1.0 801:1.0 1112:1.0 
1.0 1202:1.0 1252:1.0 
1.0 2046:1.0 2782:1.0 
0.7925659690363429 1396:1.0 2350:1.0 
0.488609341438454 404:1.0 777:1.0 
1.0 387:1.0 2391:1.0 
0.1111943876062863 393:1.0 1245:1.0 
0.4077706222052382 148:1.0 1201:1.0 
1.0 1375:1.0 2830:1.0 
0.332670265584733 1565:1.0 2374:1.0 
0.4071904898190851 694:1.0 1603:1.0 
0.11133522833924853 390:1.0 576:1.0 
0.1507242279345067 56:1.0 910:1.0 
1.0 1203:1.0 2375:1.0 
1.0 1753:1.0 2575:1.0 
0.6442859567564476 1170:1.0 1996:1.0 
0.4887810939434795 164:1.0 2602:1.0 
1.0 409:1.0 1060:1.0 
0.11071260362414662 1492:1.0 2361:1.0 
0.23993929527575913 995:1.0 1125:1.0 
1.0 1625:1.0 2678:1.0 
0.11124728749872681 130:1.0 1902:1.0 
1.0 1192:1.0 1642:1.0 
0.17332666171164127 199:1.0 1481:1.0 
0.4072450439835429 787:1.0 1169:1.0 
0.4893819552311722 724:1.0 2708:1.0 
0.6446013506653825 1996:1.0 2317:1.0 
0.741027061623739 515:1.0 1265:1.0 
0.8893852225507305 2366:1.0 2805:1.0 
0.08049334066221711 280:1.0 2564:1.0 
0.0740357593362316 1964:1.0 2763:1.0 
0.9551483356827856 231:1.0 274:1.0 
0.29080595988835634 622:1.0 674:1.0 
0.36090954932287145 97:1.0 668:1.0 
0.07496128253368828 792:1.0 2093:1.0 
0.6112510801689379 1824:1.0 2008:1.0 
0.003102041909644554 1771:1.0 2950:1.0 
0.9997030683185285 530:1.0 1930:1.0 
1.0 2199:1.0 2946:1.0 
1.0 605:1.0 2924:1.0 
0.40733588978464763 1708:1.0 2082:1.0 
0.4987842507588309 1690:1.0 2906:1.0 
0.40770368909553645 1398:1.0 2063:1.0 
0.07440394693205687 322:1.0 426:1.0 
1.0 464:1.0 879:1.0 
0.555546354760644 1925:1.0 2468:1.0 
0.07363028880762004 1045:1.0 1437:1.0 
0.4075283311970129 439:1.0 1169:1.0 
1.0 1526:1.0 1854:1.0 
0.40737864264632967 1340:1.0 1428:1.0 
1.0 1586:1.0 1778:1.0 
0.844896018556673 843:1.0 1362:1.0 
0.7553263491539873 164:1.0 2941:1.0 
1.0 549:1.0 2482:1.0 
0.07426528126218562 1075:1.0 2915:1.0 
0.09485875282924114 272:1.0 560:1.0 
0.2016108378640424 1585:1.0 1999:1.0 
0.2776789851247374 284:1.0 740:1.0 
0.40723489744568725 961:1.0 2893:1.0 
1.0 1823:1.0 2775:1.0 
1.0 86:1.0 540:1.0 
0.34775107665836275 2238:1.0 2807:1.0 
0.032662721094380065 2003:1.0 2488:1.0 
0.6113217564609974 1441:1.0 2215:1.0 
1.0 950:1.0 2113:1.0 
1.0 490:1.0 829:1.0 
1.0 1703:1.0 2816:1.0 
0.7409281803774593 520:1.0 2329:1.0 
0.6112259432421494 168:1.0 1118:1.0 
0.03270035158310161 272:1.0 396:1.0 
0.6673356878189641 861:1.0 1017:1.0 
0.4585365575111947 444:1.0 1222:1.0 
1.0 1103:1.0 2943:1.0 
0.07391615973549845 297:1.0 1232:1.0 
0.7405004414562347 1380:1.0 2354:1.0 
1.0 658:1.0 2522:1.0 
0.11015713315434655 1957:1.0 2512:1.0 
0.19874478870026485 56:1.0 2486:1.0 
0.7405417704848269 2166:1.0 2483:1.0 
0.4069874217952468 1070:1.0 2120:1.0 
0.6112426761631014 152:1.0 940:1.0 
0.4077770681296742 884:1.0 1030:1.0 
0.35077889722107813 677:1.0 2807:1.0 
0.11139833927154541 306:1.0 2491:1.0 
0.6111083072475163 413:1.0 2119:1.0 
0.4995478941769975 1859:1.0 1955:1.0 
1.0 2589:1.0 2745:1.0 
0.5009054019407213 510:1.0 1047:1.0 
3.521586701372703E-4 1676:1.0 2319:1.0 
0.07411480986280189 928:1.0 1334:1.0 
0.6110634933007298 270:1.0 1001:1.0 
0.5797081242106804 7:1.0 59:1.0 
1.0 2109:1.0 2365:1.0 
0.5557146804444061 2364:1.0 2806:1.0 
0.5556945613680727 1568:1.0 2250:1.0 
0.9992617605912113 620:1.0 1825:1.0 
1.0 2836:1.0 2936:1.0 
0.11142365198218035 698:1.0 1278:1.0 
0.4073097118340291 2265:1.0 2465:1.0 
0.6656624072044898 543:1.0 2757:1.0 
0.47466788247583813 332:1.0 2804:1.0 
0.7410683125584117 766:1.0 853:1.0 
1.0 1254:1.0 2947:1.0 
1.0 1569:1.0 2122:1.0 
0.10811126521012698 930:1.0 2363:1.0 
1.0 1105:1.0 2502:1.0 
0.3331518623220743 1993:1.0 2059:1.0 
0.4074515213554852 773:1.0 1686:1.0 
0.8128108129297664 505:1.0 2607:1.0 
1.0 2263:1.0 2276:1.0 
1.0 799:1.0 2663:1.0 
0.40753444355440027 1749:1.0 2110:1.0 
0.24030886112655317 2609:1.0 2678:1.0 
1.0 383:1.0 733:1.0 
0.07375686056013953 2303:1.0 2839:1.0 
0.0029363386609881637 1493:1.0 1494:1.0 
0.28843580520039275 1678:1.0 1854:1.0 
0.5235888916825904 301:1.0 1367:1.0 
0.6112285021621351 511:1.0 2532:1.0 
0.40742868376670904 385:1.0 2150:1.0 
7.970377504479265E-4 480:1.0 483:1.0 
0.11129660489915111 499:1.0 1297:1.0 
1.7882021030693473E-4 2927:1.0 2930:1.0 
1.0 5:1.0 828:1.0 
1.0 1944:1.0 2548:1.0 
0.6438100420947804 1094:1.0 2058:1.0 
0.04510193959665929 1171:1.0 1496:1.0 
0.6113096806094774 2200:1.0 2433:1.0 
1.0 812:1.0 1716:1.0 
0.9327617168188694 2153:1.0 2895:1.0 
0.055534627112255375 2237:1.0 2925:1.0 
0.47477673080793725 1610:1.0 2804:1.0 
1.0 568:1.0 713:1.0 
0.7406663403446307 1912:1.0 2190:1.0 
1.0 2056:1.0 2867:1.0 
0.3324335212300956 731:1.0 772:1.0 
0.2782451314340563 1819:1.0 2907:1.0 
0.4076391214804116 70:1.0 1290:1.0 
1.0 1149:1.0 1328:1.0 
0.9560401227693197 2894:1.0 2973:1.0 
0.11106715534851269 1447:1.0 2690:1.0 
0.4072162939588878 1687:1.0 2590:1.0 
0.6110588753681441 728:1.0 1487:1.0 
1.0 129:1.0 465:1.0 
1.0 2438:1.0 2567:1.0 
0.611204202564797 590:1.0 1330:1.0 
0.15149351966336144 1222:1.0 2880:1.0 
1.0 531:1.0 934:1.0 
0.610966587856304 949:1.0 2931:1.0 
0.5556945613680727 2250:1.0 2955:1.0 
0.07298451388820387 2093:1.0 2803:1.0 
1.0 1853:1.0 2540:1.0 
0.11122447630796586 2394:1.0 2413:1.0 
1.0 2420:1.0 2490:1.0 
0.5555662212669807 144:1.0 2049:1.0 
0.11104022624170617 711:1.0 1000:1.0 
0.055782248254618555 810:1.0 1078:1.0 
0.20977183026153723 568:1.0 2134:1.0 
0.3607925898977567 1353:1.0 1869:1.0 
0.111328125 1723:1.0 2652:1.0 
1.0 1284:1.0 2276:1.0 
0.4074453513425991 1629:1.0 2138:1.0 
1.0 1121:1.0 1228:1.0 
0.4565974295161707 770:1.0 2841:1.0 
0.07574037867233188 227:1.0 903:1.0 
0.49947038556339224 406:1.0 2840:1.0 
0.7410342531649168 1034:1.0 1391:1.0 
0.9450379776421787 99:1.0 712:1.0 
0.457764832613793 685:1.0 871:1.0 
0.9331303142666006 1531:1.0 2594:1.0 
0.4074702086614207 2686:1.0 2766:1.0 
0.1113659987303579 437:1.0 1528:1.0 
0.3055862921640017 463:1.0 1840:1.0 
0.30555294939406663 1390:1.0 1406:1.0 
0.5554887522366412 2614:1.0 2668:1.0 
1.0 2457:1.0 2781:1.0 
0.7405547386658957 846:1.0 2128:1.0 
0.2486965171659332 377:1.0 1137:1.0 
0.30549546039226344 368:1.0 852:1.0 
1.0 1340:1.0 2221:1.0 
1.0 1096:1.0 2821:1.0 
0.11104502209254072 1823:1.0 2275:1.0 
1.0 247:1.0 2568:1.0 
0.9448151669782063 1280:1.0 2781:1.0 
0.9836069005975862 3:1.0 1560:1.0 
0.5006911234741118 684:1.0 1279:1.0 
0.5008904494129673 438:1.0 2782:1.0 
0.740708215607458 112:1.0 506:1.0 
0.8074782905353114 2048:1.0 2747:1.0 
0.11135958182009206 76:1.0 243:1.0 
0.6111264042451595 1949:1.0 2173:1.0 
1.0 857:1.0 974:1.0 
0.8439733602844127 2189:1.0 2920:1.0 
0.6112220324561014 561:1.0 1703:1.0 
0.6450820046161043 100:1.0 1138:1.0 
1.0 1878:1.0 1931:1.0 
3.8770362047463314E-4 2043:1.0 2743:1.0 
1.0 14:1.0 1118:1.0 
0.05929921465707855 87:1.0 571:1.0 
1.0 159:1.0 1774:1.0 
0.11261121231441176 263:1.0 1778:1.0 
6.991294874896248E-4 1492:1.0 1664:1.0 
0.5563732139757445 2479:1.0 2798:1.0 
0.11233104932259658 219:1.0 1083:1.0 
0.611159372635561 353:1.0 2057:1.0 
0.02399241504832239 317:1.0 410:1.0 
1.0 2019:1.0 2438:1.0 
0.3610126165526061 251:1.0 432:1.0 
0.8612240961139256 486:1.0 2453:1.0 
0.9977838521969922 1083:1.0 2099:1.0 
0.6664601241863006 2283:1.0 2823:1.0 
0.11121915026416598 840:1.0 1055:1.0 
0.6106035292734971 324:1.0 1248:1.0 
0.2375078512211655 1639:1.0 2679:1.0 
1.0 2073:1.0 2310:1.0 
0.8102146275774922 1262:1.0 1396:1.0 
1.0 1381:1.0 2917:1.0 
1.0 1857:1.0 2674:1.0 
0.7407261764332914 541:1.0 1511:1.0 
0.4073510208674879 905:1.0 1030:1.0 
1.0 584:1.0 2607:1.0 
0.8607111514295074 1700:1.0 2683:1.0 
1.0 841:1.0 1333:1.0 
0.11120915810988649 202:1.0 1623:1.0 
0.04620068603964572 262:1.0 2892:1.0 
1.0 326:1.0 947:1.0 
1.0 2227:1.0 2514:1.0 
1.0 1867:1.0 1970:1.0 
0.6112211267127934 1159:1.0 1515:1.0 
0.13975445042864335 1772:1.0 2095:1.0 
0.6110496955492184 489:1.0 913:1.0 
1.0 894:1.0 2963:1.0 
0.611328125 1288:1.0 2779:1.0 
0.7577574786536906 1969:1.0 2632:1.0 
1.0 1249:1.0 1858:1.0 
0.1112105125178332 1004:1.0 1605:1.0 
1.0 1528:1.0 2877:1.0 
0.11125724303951925 552:1.0 1454:1.0 
1.0 1730:1.0 2040:1.0 
0.5232587977195001 27:1.0 493:1.0 
1.0 60:1.0 903:1.0 
1.0 860:1.0 1244:1.0 
1.0 487:1.0 825:1.0 
0.7286479022081684 266:1.0 798:1.0 
0.6112941592040256 355:1.0 2742:1.0 
0.7552413087926635 281:1.0 2047:1.0 
1.0 1799:1.0 2381:1.0 
0.27529384572571597 267:1.0 2486:1.0 
1.0 1136:1.0 2259:1.0 
0.997268930066245 1494:1.0 1936:1.0 
1.0 198:1.0 2616:1.0 
0.6193920891476091 2134:1.0 2525:1.0 
1.0 78:1.0 2967:1.0 
0.7409957261364111 1529:1.0 1946:1.0 
0.94340882178268 263:1.0 2095:1.0 
0.07431273416381476 1559:1.0 1714:1.0 
0.6112417108624735 110:1.0 1333:1.0 
0.25079002731060457 1690:1.0 2900:1.0 
1.0 777:1.0 1083:1.0 
1.0 2591:1.0 2637:1.0 
1.0 295:1.0 876:1.0 
0.48862557139414153 1566:1.0 2417:1.0 
0.4074295445039627 1502:1.0 2796:1.0 
0.11157072038450239 1434:1.0 1548:1.0 
0.11403932805370365 2099:1.0 2481:1.0 
0.4072104876245257 1615:1.0 2056:1.0 
0.9333169709804541 179:1.0 1755:1.0 
0.9442805638065198 31:1.0 2033:1.0 
1.0 1803:1.0 2487:1.0 
0.6108733781448106 544:1.0 1842:1.0 
0.8613205884664651 821:1.0 1400:1.0 
0.5554426713801279 1153:1.0 1158:1.0 
0.9018582269029907 513:1.0 579:1.0 
1.0 1527:1.0 1847:1.0 
0.07423084797652471 82:1.0 738:1.0 
0.40747875909651493 420:1.0 2641:1.0 
0.4073483676600125 154:1.0 598:1.0 
0.6111722296327685 1757:1.0 1871:1.0 
0.8614519496218996 1039:1.0 2840:1.0 
0.5557088421633604 1076:1.0 2668:1.0 
1.0 2318:1.0 2975:1.0 
0.6731462745037426 56:1.0 1683:1.0 
0.19302657562976358 218:1.0 521:1.0 
3.2348563935388763E-4 1404:1.0 2397:1.0 
0.6111447561081931 1608:1.0 1835:1.0 
1.0 1117:1.0 2455:1.0 
0.24055831098116845 1047:1.0 1122:1.0 
0.30551580445798543 1376:1.0 1767:1.0 
0.998906016878867 1533:1.0 2656:1.0 
0.11114326719729026 765:1.0 2409:1.0 
0.8621290389394247 1997:1.0 2622:1.0 
0.27746418429153136 805:1.0 1315:1.0 
0.2942536659333021 2458:1.0 2472:1.0 
1.0 1276:1.0 2981:1.0 
0.3057045114575624 2037:1.0 2411:1.0 
0.944122857323795 31:1.0 1430:1.0 
1.0 8:1.0 92:1.0 
0.30659121103309644 685:1.0 2880:1.0 
0.28888730742183 592:1.0 2317:1.0 
0.11105885365749388 785:1.0 1963:1.0 
0.556215061939273 88:1.0 2620:1.0 
1.0 1608:1.0 1767:1.0 
1.0 1866:1.0 2982:1.0 
1.0 217:1.0 1238:1.0 
0.6112246705994755 500:1.0 1155:1.0 
1.0 2293:1.0 2718:1.0 
1.0 1327:1.0 2982:1.0 
1.0 923:1.0 2810:1.0 
0.09555516087914084 1141:1.0 2881:1.0 
0.6467071173103637 2286:1.0 2972:1.0 
1.0 571:1.0 982:1.0 
0.7406940187454784 1275:1.0 2975:1.0 
0.489363288019498 2328:1.0 2584:1.0 
0.24476855489958013 2496:1.0 2933:1.0 
1.0 55:1.0 1270:1.0 
0.34500728971120775 791:1.0 984:1.0 
0.5559290126441201 888:1.0 1158:1.0 
0.6114342362389179 1754:1.0 2643:1.0 
1.0 533:1.0 1077:1.0 
0.38813173121471384 1280:1.0 2793:1.0 
0.40741989909245674 200:1.0 577:1.0 
0.44255415431752543 458:1.0 2685:1.0 
0.4461987283528572 811:1.0 1485:1.0 
0.3059671695428471 1100:1.0 1390:1.0 
0.11178400457175702 416:1.0 666:1.0 
0.21886961605702254 1589:1.0 2316:1.0 
0.08922496621197404 91:1.0 1520:1.0 
0.8886908567197574 192:1.0 2620:1.0 
1.0 17:1.0 1348:1.0 
0.11104892088895785 1123:1.0 1164:1.0 
0.38082409967636766 2499:1.0 2867:1.0 
1.0 656:1.0 2102:1.0 
0.32168498973076404 358:1.0 548:1.0 
0.6455878363826801 425:1.0 864:1.0 
1.0 1354:1.0 2935:1.0 
0.8892750639211201 134:1.0 745:1.0 
0.011929955720841351 123:1.0 1798:1.0 
0.611365182969996 586:1.0 697:1.0 
0.4074620238938851 139:1.0 1203:1.0 
0.07373002774985965 1404:1.0 2599:1.0 
0.48927651080130974 1635:1.0 1648:1.0 
1.0 246:1.0 2517:1.0 
1.0 1134:1.0 1216:1.0 
0.10860922695896363 206:1.0 778:1.0 
0.11120257227603284 2530:1.0 2713:1.0 
0.611328125 1204:1.0 1567:1.0 
0.08869951794195166 1110:1.0 2145:1.0 
1.0 1235:1.0 2681:1.0 
0.2438523467520537 2513:1.0 2827:1.0 
0.6112241686396905 863:1.0 1207:1.0 
1.0 336:1.0 1036:1.0 
0.33369659017188025 2560:1.0 2801:1.0 
0.3055549082370791 1837:1.0 2156:1.0 
0.4054072719493106 860:1.0 1458:1.0 
0.08849569662437828 608:1.0 1171:1.0 
0.41111617904098924 780:1.0 1647:1.0 
1.0 705:1.0 724:1.0 
0.03136136148469523 2488:1.0 2524:1.0 
0.4884437812663529 1644:1.0 2188:1.0 
1.0 10:1.0 82:1.0 
1.0 1223:1.0 1281:1.0 
0.11141063718948574 1079:1.0 2604:1.0 
0.6106227092954157 1929:1.0 2088:1.0 
1.0 846:1.0 1180:1.0 
1.0 179:1.0 1807:1.0 
0.7495563143099524 482:1.0 2268:1.0 
1.0 1019:1.0 1924:1.0 
0.7860741207610795 1551:1.0 2768:1.0 
0.6111737229781495 291:1.0 715:1.0 
0.611054296175753 89:1.0 2707:1.0 
1.0 893:1.0 1488:1.0 
0.4886493154941454 1133:1.0 1176:1.0 
0.40741929883970274 990:1.0 991:1.0 
0.11164494320372698 352:1.0 862:1.0 
0.8054294040763105 1521:1.0 2229:1.0 
0.5758629469184038 1156:1.0 1313:1.0 
0.11122161409504955 436:1.0 973:1.0 
0.11128355836800469 1050:1.0 2356:1.0 
0.48932477211363257 210:1.0 737:1.0 
1.0 1980:1.0 2438:1.0 
1.0 1378:1.0 1708:1.0 
0.4072810846192063 483:1.0 678:1.0 
0.11118350034879038 897:1.0 1951:1.0 
0.5742707886899324 1152:1.0 1347:1.0 
0.7409735413560371 2157:1.0 2354:1.0 
1.0 1904:1.0 2145:1.0 
0.07417973901688796 2199:1.0 2216:1.0 
1.0 1657:1.0 2014:1.0 
1.0 209:1.0 1225:1.0 
0.11033775034017534 563:1.0 1664:1.0 
1.0 2654:1.0 2683:1.0 
0.4452397307801612 2005:1.0 2637:1.0 
1.0 2176:1.0 2834:1.0 
1.0 1187:1.0 1246:1.0 
0.48688707791107344 1809:1.0 2047:1.0 
1.0 790:1.0 1465:1.0 
1.0 700:1.0 2715:1.0 
0.11233113359395641 2610:1.0 2757:1.0 
1.0 1816:1.0 2937:1.0 
0.6112090477397034 1259:1.0 2390:1.0 
1.0 198:1.0 455:1.0 
0.6112391279834877 73:1.0 2032:1.0 
0.11120420179065973 2212:1.0 2730:1.0 
1.0 628:1.0 1135:1.0 
1.0 781:1.0 2630:1.0 
0.6113252240820479 434:1.0 2106:1.0 
0.23762736630783976 609:1.0 2420:1.0 
1.0 1566:1.0 1669:1.0 
0.111209146342517 454:1.0 1803:1.0 
0.3956776166627069 1146:1.0 1684:1.0 
1.0 1648:1.0 1693:1.0 
1.0 2154:1.0 2460:1.0 
0.9442831163135049 360:1.0 1422:1.0 
0.6438762337903412 786:1.0 2965:1.0 
0.44515864094477253 49:1.0 807:1.0 
0.0742519472050166 1990:1.0 2004:1.0 
0.443876452312135 472:1.0 807:1.0 
0.3660225631787818 1048:1.0 2632:1.0 
0.8608670692194172 2267:1.0 2300:1.0 
0.7411310961720008 140:1.0 1269:1.0 
0.11113575678824297 1631:1.0 2958:1.0 
0.5086692942939895 440:1.0 2075:1.0 
0.1987984381708562 123:1.0 505:1.0 
0.11096393045385683 2282:1.0 2788:1.0 
0.9485602213099488 227:1.0 2929:1.0 
0.5554102424346521 2049:1.0 2090:1.0 
0.8410809019060502 507:1.0 1178:1.0 
0.6111628971394764 2271:1.0 2835:1.0 
0.665613014589741 381:1.0 817:1.0 
0.6419398675739458 790:1.0 1006:1.0 
0.3054726132894661 1382:1.0 2850:1.0 
1.0 162:1.0 792:1.0 
1.0 1801:1.0 2363:1.0 
0.9503437407352853 734:1.0 2252:1.0 
0.011574436028633062 2607:1.0 2615:1.0 
1.0 120:1.0 2524:1.0 
0.6130145513282669 218:1.0 558:1.0 
1.0 594:1.0 1680:1.0 
1.0 2159:1.0 2431:1.0 
1.0 57:1.0 2025:1.0 
1.0 366:1.0 2425:1.0 
1.0 1772:1.0 2451:1.0 
0.07268579890248719 1205:1.0 2542:1.0 
0.055472942450024265 2237:1.0 2474:1.0 
1.0 1883:1.0 2362:1.0 
0.4075946091809901 1252:1.0 1587:1.0 
1.0 556:1.0 881:1.0 
0.2411861854625424 1942:1.0 2464:1.0 
0.07390758967518524 618:1.0 763:1.0 
0.13269956395768082 94:1.0 1005:1.0 
1.0 589:1.0 2816:1.0 
0.5560393262305565 205:1.0 1901:1.0 
1.0 664:1.0 1691:1.0 
4.106082773494557E-4 921:1.0 1613:1.0 
0.5014062862253083 235:1.0 2940:1.0 
1.0 1352:1.0 2434:1.0 
0.11116903732418959 339:1.0 2373:1.0 
1.0 1820:1.0 2072:1.0 
0.11136383269447656 619:1.0 1445:1.0 
1.0 623:1.0 1870:1.0 
0.07384328875028501 1205:1.0 1620:1.0 
0.07436128057388264 297:1.0 616:1.0 
0.043581735188102155 492:1.0 1496:1.0 
1.0 688:1.0 1291:1.0 
1.0 1796:1.0 2275:1.0 
0.07459091181814093 708:1.0 1825:1.0 
0.07405663094561737 162:1.0 2741:1.0 
1.0 441:1.0 784:1.0 
1.0 969:1.0 1234:1.0 
0.500485665676635 299:1.0 1319:1.0 
1.0 280:1.0 2893:1.0 
0.2887331716737651 1692:1.0 2666:1.0 
1.0 391:1.0 1191:1.0 
0.9333499174062276 346:1.0 2482:1.0 
0.611223064144716 802:1.0 1130:1.0 
0.611220815490253 892:1.0 1326:1.0 
1.0 500:1.0 2737:1.0 
0.24442229894974332 2432:1.0 2759:1.0 
0.9338151944852864 1032:1.0 1818:1.0 
0.11115869784853014 1505:1.0 2368:1.0 
1.0 1087:1.0 1126:1.0 
0.4071725030978964 452:1.0 2186:1.0 
1.0 771:1.0 2104:1.0 
0.7410011901570037 112:1.0 1409:1.0 
0.28928007083882173 1535:1.0 2646:1.0 
0.08038169768412776 280:1.0 732:1.0 
1.0 1574:1.0 1645:1.0 
1.0 1836:1.0 1860:1.0 
0.1114178259158507 1229:1.0 1844:1.0 
1.0 16:1.0 287:1.0 
1.0 2347:1.0 2566:1.0 
0.40735805255122126 782:1.0 1624:1.0 
1.0 259:1.0 1598:1.0 
0.7408353917727941 225:1.0 1383:1.0 
1.0 2661:1.0 2960:1.0 
0.4073458997508133 319:1.0 2066:1.0 
1.0 2216:1.0 2280:1.0 
0.5558900653895255 294:1.0 1161:1.0 
0.6113809151969241 641:1.0 966:1.0 
0.3053485825077472 463:1.0 2538:1.0 
0.35051448972731486 1115:1.0 2311:1.0 
1.0 587:1.0 827:1.0 
0.08822986732280605 722:1.0 1395:1.0 
1.0 1343:1.0 2516:1.0 
0.19894676989590748 733:1.0 2441:1.0 
0.11113768231207716 882:1.0 1281:1.0 
0.6887329996775386 843:1.0 2078:1.0 
0.6110945832978285 1151:1.0 2494:1.0 
0.444169188550051 414:1.0 1053:1.0 
1.0 234:1.0 2501:1.0 
1.0 1185:1.0 1205:1.0 
0.11042837073395168 595:1.0 1221:1.0 
0.6109054975387953 466:1.0 1113:1.0 
0.24249224503228695 1255:1.0 2015:1.0 
0.5737440860312448 2287:1.0 2782:1.0 
1.0 305:1.0 857:1.0 
0.04973541445972107 2091:1.0 2147:1.0 
0.3055413883548358 1018:1.0 1065:1.0 
1.0 2045:1.0 2974:1.0 
1.0 1955:1.0 2432:1.0 
0.7256400060138954 56:1.0 1067:1.0 
0.11121123293815321 2170:1.0 2843:1.0 
0.6112241287792256 874:1.0 1599:1.0 
1.0 449:1.0 1870:1.0 
0.07414747681659903 451:1.0 2216:1.0 
0.9673467225466073 195:1.0 1087:1.0 
0.30573230189112954 115:1.0 852:1.0 
0.0451624536933985 2334:1.0 2899:1.0 
0.4885476260751089 1718:1.0 1759:1.0 
0.40736685222998914 1705:1.0 1989:1.0 
1.0 1364:1.0 1479:1.0 
1.0 966:1.0 1555:1.0 
0.24388264074005025 2389:1.0 2786:1.0 
0.611223901920882 283:1.0 2351:1.0 
0.38970999367037706 31:1.0 805:1.0 
0.81476335889636 1518:1.0 1857:1.0 
1.0 1686:1.0 2141:1.0 
0.0895188936186419 239:1.0 1389:1.0 
0.8138450700860231 2075:1.0 2378:1.0 
0.1760511318089754 199:1.0 2387:1.0 
1.0 1758:1.0 1766:1.0 
0.3561185499901439 1802:1.0 2594:1.0 
0.9995081059620333 698:1.0 1548:1.0 
1.0 485:1.0 2122:1.0 
0.04362988432896989 2899:1.0 2916:1.0 
0.6886088013608718 2325:1.0 2629:1.0 
0.7279784939188982 377:1.0 540:1.0 
0.3848603462034387 2000:1.0 2619:1.0 
1.0 2521:1.0 2549:1.0 
0.4886918610683991 2184:1.0 2902:1.0 
0.5064831711414829 1704:1.0 1965:1.0 
0.09566278944778847 558:1.0 1249:1.0 
0.4086010609932255 938:1.0 1458:1.0 
0.6111590872768833 2039:1.0 2825:1.0 
0.6112257294991397 447:1.0 1453:1.0 
0.40765920145021295 2100:1.0 2970:1.0 
0.11109422590854379 1292:1.0 1494:1.0 
0.0010751634254207998 324:1.0 611:1.0 
1.0 2716:1.0 2864:1.0 
0.9978535814556388 622:1.0 2286:1.0 
1.0 100:1.0 474:1.0 
0.4076338697077238 452:1.0 1029:1.0 
0.5001980404562827 1378:1.0 2534:1.0 
0.08909534301186889 806:1.0 828:1.0 
0.6112883270152445 752:1.0 837:1.0 
0.45945167622488836 538:1.0 1178:1.0 
0.999571600293018 369:1.0 2912:1.0 
1.0 1309:1.0 2946:1.0 
1.0 2856:1.0 
1.0 416:1.0 1009:1.0 
0.2897403357564744 304:1.0 559:1.0 
1.0 762:1.0 2253:1.0 
0.4073909503819572 1575:1.0 1966:1.0 
1.0 1058:1.0 1261:1.0 
0.5089510741024312 1752:1.0 1769:1.0 
0.11121503898792923 22:1.0 632:1.0 
1.0 1199:1.0 1463:1.0 
0.1112058196037308 2663:1.0 2812:1.0 
0.6113575745440623 495:1.0 2497:1.0 
0.5002675604361669 357:1.0 2515:1.0 
0.611184975845126 85:1.0 800:1.0 
0.07407015520127863 1765:1.0 2257:1.0 
0.11110749679715978 220:1.0 967:1.0 
0.4075511806788944 1160:1.0 1304:1.0 
1.0 2218:1.0 2671:1.0 
0.11127767396448163 808:1.0 1320:1.0 
0.4075512910886287 2415:1.0 2695:1.0 
0.4887936758193707 1132:1.0 2588:1.0 
0.07417443904860949 928:1.0 1015:1.0 
0.24407315445233235 1542:1.0 1635:1.0 
0.6110818260982497 660:1.0 1914:1.0 
0.40719853450186483 1762:1.0 2484:1.0 
0.6110081723246495 2743:1.0 2778:1.0 
1.0 1171:1.0 1405:1.0 
0.40751780830164264 177:1.0 2112:1.0 
0.5928956898246707 1518:1.0 2590:1.0 
0.5761237586405532 174:1.0 312:1.0 
0.40732557043505474 148:1.0 1490:1.0 
1.0 632:1.0 1216:1.0 
1.0 468:1.0 1461:1.0 
0.6112201528621872 402:1.0 865:1.0 
0.40753714392456225 30:1.0 1360:1.0 
0.07340780640181849 380:1.0 618:1.0 
0.2895362395615647 1116:1.0 2785:1.0 
0.7406697119051311 766:1.0 2450:1.0 
0.44607723356958184 221:1.0 458:1.0 
0.740773892283672 75:1.0 1206:1.0 
1.0 691:1.0 2533:1.0 
1.0 857:1.0 2342:1.0 
1.0 851:1.0 1991:1.0 
0.11065346735622164 1460:1.0 2139:1.0 
0.4075623078072379 626:1.0 1157:1.0 
0.6113719814839389 1677:1.0 1847:1.0 
0.2893093590865252 2023:1.0 2298:1.0 
0.6112047883851072 52:1.0 1439:1.0 
1.0 356:1.0 2488:1.0 
0.11099033430136873 1984:1.0 2692:1.0 
0.11135202551782081 39:1.0 178:1.0 
1.0 1197:1.0 2886:1.0 
0.07439407845810045 1825:1.0 2977:1.0 
0.6113478632505894 108:1.0 163:1.0 
1.0 2539:1.0 2564:1.0 
1.0 194:1.0 1326:1.0 
0.07406691785362049 2397:1.0 2563:1.0 
0.6114373543258798 289:1.0 2725:1.0 
0.6408357440208371 748:1.0 834:1.0 
0.38599142112362783 501:1.0 504:1.0 
0.6110978818605622 1104:1.0 2573:1.0 
1.0 1242:1.0 2161:1.0 
0.0450754618839429 374:1.0 453:1.0 
0.997044501213445 2319:1.0 2481:1.0 
1.0 2253:1.0 2591:1.0 
0.28915144666273207 2550:1.0 2997:1.0 
1.0 539:1.0 2807:1.0 
0.6438268509275514 1782:1.0 2169:1.0 
1.0 281:1.0 2118:1.0 
1.0 368:1.0 2521:1.0 
0.7408424914063074 956:1.0 1716:1.0 
0.4997622160727775 403:1.0 821:1.0 
0.6433680555444311 304:1.0 864:1.0 
0.6112051364567872 2208:1.0 2979:1.0 
0.2391713964466126 894:1.0 1137:1.0 
0.11150888092453248 924:1.0 1994:1.0 
0.4073859868581433 2031:1.0 2143:1.0 
1.0 263:1.0 2537:1.0 
0.4073010195309244 1160:1.0 1663:1.0 
0.11121883632892413 77:1.0 422:1.0 
0.9548654123381499 1638:1.0 2735:1.0 
0.36704355879484957 1787:1.0 1977:1.0 
0.7409271667710229 75:1.0 81:1.0 
0.08913961211941482 2461:1.0 2983:1.0 
0.11129735471124524 2116:1.0 2967:1.0 
1.0 8:1.0 1958:1.0 
1.0 1452:1.0 2030:1.0 
0.07439606299921889 917:1.0 2578:1.0 
0.8055525973003899 250:1.0 797:1.0 
4.057104105081033E-4 1984:1.0 2923:1.0 
0.6112248024895357 1939:1.0 2753:1.0 
1.0 1594:1.0 2557:1.0 
1.0 126:1.0 498:1.0 
1.0 2290:1.0 2859:1.0 
0.8891995281292346 472:1.0 753:1.0 
1.0 1900:1.0 2735:1.0 
1.0 257:1.0 469:1.0 
0.04248648160367524 262:1.0 962:1.0 
0.043875731784721816 688:1.0 2194:1.0 
1.0 149:1.0 941:1.0 
0.6437254244808515 948:1.0 1116:1.0 
1.0 137:1.0 1127:1.0 
0.500418523560984 2534:1.0 2693:1.0 
1.0 950:1.0 1200:1.0 
0.1123790156966073 1397:1.0 1986:1.0 
0.6657974007198422 508:1.0 1819:1.0 
1.0 207:1.0 2430:1.0 
1.0 1583:1.0 1750:1.0 
0.3325328240469617 1868:1.0 2610:1.0 
0.4063920104405475 636:1.0 713:1.0 
0.5013473053155156 2069:1.0 2956:1.0 
1.0 50:1.0 984:1.0 
1.0 1734:1.0 2791:1.0 
0.40736816912332907 286:1.0 2150:1.0 
1.0 1369:1.0 1932:1.0 
0.7337516202745824 2406:1.0 2941:1.0 
0.11112279633647468 687:1.0 1149:1.0 
0.4075235426849052 478:1.0 1466:1.0 
0.4105613206027451 1585:1.0 1934:1.0 
0.48867953696605176 994:1.0 1244:1.0 
1.0 245:1.0 1198:1.0 
0.07401781862191215 101:1.0 929:1.0 
2.827669230366092E-4 270:1.0 2931:1.0 
1.0 2102:1.0 2110:1.0 
1.0 1748:1.0 2799:1.0 
1.0 1956:1.0 2029:1.0 
1.0 958:1.0 1942:1.0 
1.0 52:1.0 1306:1.0 
0.40730588461536094 1724:1.0 1898:1.0 
0.40751983571641714 1831:1.0 2485:1.0 
0.7402320405863809 684:1.0 895:1.0 
0.031336677307962635 2249:1.0 2488:1.0 
0.4074109200962137 1773:1.0 2259:1.0 
0.2450590549108779 361:1.0 1176:1.0 
0.611035573262634 16:1.0 2175:1.0 
0.0884522632723373 2053:1.0 2334:1.0 
0.1112047883851072 1867:1.0 2926:1.0 
1.0 127:1.0 1109:1.0 
0.5005593169975915 602:1.0 649:1.0 
0.28864096245677096 350:1.0 3000:1.0 
0.04502818489926491 1095:1.0 2145:1.0 
0.7410668821729586 1801:1.0 2721:1.0 
0.61117436347718 477:1.0 1783:1.0 
0.3608793192823685 567:1.0 671:1.0 
0.6112231538996442 944:1.0 1254:1.0 
1.0 1541:1.0 1789:1.0 
0.12749456884566288 195:1.0 2733:1.0 
0.6112022538307222 248:1.0 1183:1.0 
0.6112219653674524 190:1.0 1506:1.0 
1.0 8:1.0 241:1.0 
0.11088834724324781 1676:1.0 2391:1.0 
1.0 25:1.0 531:1.0 
0.4075638882026481 991:1.0 2822:1.0 
1.0 1337:1.0 2360:1.0 
0.07442214235142 1717:1.0 2536:1.0 
0.6109896134365498 20:1.0 1300:1.0 
0.6114461421966553 1274:1.0 2001:1.0 
0.8612819644547074 2534:1.0 2957:1.0 
0.6450251543393477 1094:1.0 1897:1.0 
1.0 250:1.0 1022:1.0 
0.0239554801760955 914:1.0 1277:1.0 
1.0 987:1.0 1052:1.0 
1.0 1991:1.0 2757:1.0 
0.0011988266012381565 618:1.0 2803:1.0 
1.0 437:1.0 534:1.0 
0.3962867798470436 832:1.0 1999:1.0 
1.0 2038:1.0 2307:1.0 
0.40771152004234484 635:1.0 1915:1.0 
1.0 219:1.0 503:1.0 
0.4074985557271428 653:1.0 2087:1.0 
0.2886968429168407 674:1.0 1785:1.0 
0.4076200744521735 1705:1.0 2879:1.0 
0.662438203742851 1731:1.0 2479:1.0 
0.3661788975906576 290:1.0 2632:1.0 
0.6887787047809812 2318:1.0 2732:1.0 
0.778580823030063 543:1.0 1238:1.0 
0.6112142548238574 2582:1.0 2592:1.0 
0.6112220533471417 113:1.0 2864:1.0 
0.6888271821234534 1503:1.0 1672:1.0 
1.0 1251:1.0 1335:1.0 
0.6111543591903357 1525:1.0 2815:1.0 
1.0 2382:1.0 2709:1.0 
0.20685498693923768 457:1.0 1020:1.0 
1.0 2292:1.0 2530:1.0 
0.09914727436224247 410:1.0 2025:1.0 
0.0738707150173484 336:1.0 1758:1.0 
0.11208184159502965 381:1.0 2203:1.0 
0.969077438940037 509:1.0 1141:1.0 
0.11004875684109497 129:1.0 2435:1.0 
0.33418727828577605 811:1.0 947:1.0 
0.24412690697706368 630:1.0 2527:1.0 
0.6110708815215 681:1.0 2487:1.0 
1.0 302:1.0 1228:1.0 
1.0 1271:1.0 1398:1.0 
0.013022226258904562 1059:1.0 1106:1.0 
1.0 1605:1.0 2277:1.0 
1.0 2929:1.0 2967:1.0 
0.11061557067531894 2011:1.0 2407:1.0 
0.2508616009857881 1809:1.0 2754:1.0 
0.001659898416669997 370:1.0 1205:1.0 
0.24118086539415406 895:1.0 2777:1.0 
0.5001958423741918 97:1.0 1658:1.0 
0.07418266974226045 2129:1.0 2624:1.0 
0.7409424774325142 1829:1.0 2483:1.0 
1.0 336:1.0 1457:1.0 
0.6113350903314727 1861:1.0 2855:1.0 
0.28903574293700446 442:1.0 1726:1.0 
0.11136527233309998 241:1.0 1342:1.0 
0.8056710640825915 250:1.0 1602:1.0 
0.6111613230983457 822:1.0 1882:1.0 
0.11132781693489266 155:1.0 761:1.0 
0.0987073018580232 1208:1.0 1233:1.0 
1.0 1572:1.0 2132:1.0 
0.29054414289744596 1006:1.0 1892:1.0 
0.11108824553754154 1305:1.0 2294:1.0 
0.4074444703952097 779:1.0 1016:1.0 
0.4452005511915126 1570:1.0 2625:1.0 
0.6113312638387315 2:1.0 2331:1.0 
0.6121272850327643 171:1.0 508:1.0 
0.11121550785561998 642:1.0 919:1.0 
0.4075857589762317 587:1.0 672:1.0 
0.1112811599655 1630:1.0 2242:1.0 
1.0 1:1.0 738:1.0 
1.0 2154:1.0 2295:1.0 
0.4074315301460556 1889:1.0 2868:1.0 
0.04394464550014404 2461:1.0 2549:1.0 
0.07387845409392979 612:1.0 1385:1.0 
0.12002881808497573 725:1.0 979:1.0 
1.0 1824:1.0 2036:1.0 
1.0 2706:1.0 2769:1.0 
1.0 1354:1.0 1434:1.0 
1.0 566:1.0 692:1.0 
1.0 176:1.0 215:1.0 
1.0 985:1.0 1323:1.0 
0.40749311035870767 1582:1.0 2872:1.0 
0.11116318882479559 156:1.0 2146:1.0 
1.0 1407:1.0 2104:1.0 
0.6112152286975292 111:1.0 260:1.0 
0.08866106909040361 962:1.0 2408:1.0 
0.6111220807813433 342:1.0 1186:1.0 
0.9340353483195669 739:1.0 1875:1.0 
0.6113391356589701 1074:1.0 2886:1.0 
1.0 2858:1.0 2928:1.0 
0.5554426713801279 775:1.0 1158:1.0 
0.5555620149669682 205:1.0 859:1.0 
1.0 50:1.0 351:1.0 
0.09952169499656616 651:1.0 1257:1.0 
0.5556115145220982 294:1.0 1641:1.0 
0.30551527677517576 1669:1.0 2626:1.0 
0.08016575393402015 280:1.0 1316:1.0 
0.11119025054546511 51:1.0 2477:1.0 
0.09842416684603883 249:1.0 2060:1.0 
3.344903572661262E-4 89:1.0 1113:1.0 
0.8097885665662587 1396:1.0 2167:1.0 
0.4325987985512103 1373:1.0 2299:1.0 
3.575245780023939E-4 698:1.0 841:1.0 
0.38695012548164187 866:1.0 1499:1.0 
0.611226541442527 1013:1.0 1386:1.0 
0.22165127680790897 789:1.0 1140:1.0 
1.0 412:1.0 527:1.0 
1.0 328:1.0 598:1.0 
1.0 365:1.0 366:1.0 
0.3240158147420735 504:1.0 2565:1.0 
1.0 1251:1.0 1430:1.0 
0.6112298597749193 2051:1.0 2664:1.0 
1.0 379:1.0 2017:1.0 
1.0 23:1.0 2803:1.0 
0.40756075108007594 2372:1.0 2465:1.0 
1.0 392:1.0 657:1.0 
1.0 4:1.0 2993:1.0 
0.8911629697968945 2316:1.0 2685:1.0 
0.11162524402264146 849:1.0 2475:1.0 
0.28863519190747244 100:1.0 424:1.0 
1.0 1983:1.0 2392:1.0 
0.11122678228661806 343:1.0 1309:1.0 
0.07425711666261861 656:1.0 1332:1.0 
0.07428557544257092 612:1.0 2746:1.0 
0.08963901161566154 1730:1.0 2916:1.0 
0.07405083265399418 887:1.0 2030:1.0 
0.11156444403519522 2326:1.0 2912:1.0 
0.1111592872305403 276:1.0 1887:1.0 
0.4075152983174679 773:1.0 909:1.0 
0.745269603029177 122:1.0 514:1.0 
0.11357636047837794 756:1.0 1936:1.0 
1.0 174:1.0 1239:1.0 
0.6112269370753227 663:1.0 1331:1.0 
0.6112216860037417 901:1.0 1111:1.0 
0.08923164917014495 1489:1.0 1998:1.0 
0.5003605602187287 671:1.0 968:1.0 
1.0 1558:1.0 2745:1.0 
1.0 667:1.0 696:1.0 
0.22628188823537107 1731:1.0 2198:1.0 
0.07382273594816768 2124:1.0 2578:1.0 
0.4072145321781605 699:1.0 2485:1.0 
0.4227263558770883 284:1.0 1008:1.0 
0.4985214612480162 1932:1.0 2622:1.0 
0.07277978879215882 370:1.0 730:1.0 
0.500440475481926 1443:1.0 2473:1.0 
0.6112060505183265 1553:1.0 2903:1.0 
0.08397264453524828 175:1.0 419:1.0 
1.0 831:1.0 2611:1.0 
0.32065512727303164 1584:1.0 2310:1.0 
0.0741835487526139 1069:1.0 1884:1.0 
0.5003983284509694 1572:1.0 2744:1.0 
0.4074553064458855 577:1.0 801:1.0 
1.7933469459154527E-5 393:1.0 2477:1.0 
1.0 754:1.0 1244:1.0 
0.6112259566226267 2081:1.0 2349:1.0 
0.07432031330119587 2599:1.0 2654:1.0 
0.3609372794276051 1054:1.0 2114:1.0 
0.5229884729054612 2597:1.0 2851:1.0 
0.06209264703443382 1499:1.0 2565:1.0 
0.8796319008482993 278:1.0 1977:1.0 
0.1620586176204193 7:1.0 2310:1.0 
0.7092365149502371 285:1.0 1249:1.0 
1.0 685:1.0 1403:1.0 
0.40768749903738166 838:1.0 1966:1.0 
0.7470492174952046 1695:1.0 2248:1.0 
0.40713030739995626 1508:1.0 2100:1.0 
0.8055525973003899 250:1.0 1845:1.0 
0.11123793613403327 986:1.0 1123:1.0 
0.611325724474783 729:1.0 1329:1.0 
0.30561205226182575 1302:1.0 1306:1.0 
0.07387501706811211 2076:1.0 2954:1.0 
0.6112999039624886 1241:1.0 1729:1.0 
1.0 631:1.0 2975:1.0 
0.09930199843594512 851:1.0 2252:1.0 
0.7409378593645812 34:1.0 846:1.0 
0.68862762652857 776:1.0 993:1.0 
1.0 732:1.0 1421:1.0 
0.7406262084855385 1652:1.0 2447:1.0 
1.0 1808:1.0 2838:1.0 
0.6113061688478032 969:1.0 2996:1.0 
1.0 220:1.0 1091:1.0 
0.3059087013970293 1065:1.0 1440:1.0 
1.0 1777:1.0 2013:1.0 
1.0 1736:1.0 2599:1.0 
0.33278256850646726 2036:1.0 2798:1.0 
0.11122214492986673 1062:1.0 1368:1.0 
0.7491469592240305 1683:1.0 1745:1.0 
0.04493851518754047 1352:1.0 1811:1.0 
1.0 1377:1.0 1424:1.0 
1.0 722:1.0 2364:1.0 
1.0 114:1.0 578:1.0 
0.08796859656429623 63:1.0 1395:1.0 
0.24418073572429594 740:1.0 770:1.0 
0.039187201335711075 1473:1.0 2147:1.0 
0.6110012583039587 562:1.0 2828:1.0 
0.07011279865565762 1313:1.0 2458:1.0 
1.0 788:1.0 2262:1.0 
0.11141081855713811 1174:1.0 1538:1.0 
0.611215425799223 2021:1.0 2665:1.0 
0.4895617616494624 1590:1.0 2774:1.0 
0.04404086828153672 1520:1.0 1879:1.0 
1.0 741:1.0 2971:1.0 
0.08959385850906959 546:1.0 1561:1.0 
0.40761215611748375 1893:1.0 2484:1.0 
0.11095906085361373 1154:1.0 2824:1.0 
1.0 298:1.0 2020:1.0 
1.0 37:1.0 2790:1.0 
1.0 2004:1.0 2572:1.0 
1.0 198:1.0 376:1.0 
1.0 1709:1.0 2630:1.0 
1.0 426:1.0 1741:1.0 
0.07411029672607014 282:1.0 883:1.0 
0.244692917710228 2213:1.0 2759:1.0 
0.30566078152625076 835:1.0 2037:1.0 
0.07421066486427455 328:1.0 873:1.0 
0.011952285561918768 1023:1.0 1682:1.0 
1.0 6:1.0 989:1.0 
0.3496318951213814 1481:1.0 2878:1.0 
1.0 2424:1.0 2441:1.0 
0.5555347307268994 2074:1.0 2179:1.0 
0.07411125771055907 354:1.0 1442:1.0 
0.0741857195084627 254:1.0 883:1.0 
0.06460127450008055 316:1.0 2841:1.0 
0.6112148811201761 716:1.0 1102:1.0 
0.6451213781037839 2898:1.0 3000:1.0 
1.0 1821:1.0 2143:1.0 
0.40744706350730553 1900:1.0 2756:1.0 
0.6113532100052836 1780:1.0 2495:1.0 
0.974185559124359 1872:1.0 2268:1.0 
0.13049056609098145 1258:1.0 2950:1.0 
1.0 2720:1.0 2883:1.0 
0.111328125 488:1.0 926:1.0 
1.0 1579:1.0 2162:1.0 
0.07477676184059454 914:1.0 1150:1.0 
0.111328125 467:1.0 1097:1.0 
1.0 551:1.0 1384:1.0 
1.0 370:1.0 2803:1.0 
0.21031423291238863 634:1.0 1463:1.0 
1.0 553:1.0 1623:1.0 
1.0 957:1.0 2138:1.0 
1.0 2428:1.0 2652:1.0 
1.0 481:1.0 2803:1.0 
0.3497300958052756 1481:1.0 1822:1.0 
0.7407252120218801 2284:1.0 2697:1.0 
1.0 41:1.0 1529:1.0 
0.24044285096581072 1279:1.0 2861:1.0 
0.07446201499461552 2292:1.0 2586:1.0 
0.11143725926561812 1369:1.0 1372:1.0 
0.5555737140529601 2400:1.0 2947:1.0 
0.36108392399842515 1378:1.0 2932:1.0 
0.016301862426888386 1942:1.0 2865:1.0 
0.7407170811508805 269:1.0 1265:1.0 
1.0 1303:1.0 2945:1.0 
0.11114841304328157 2191:1.0 2591:1.0 
1.0 2243:1.0 2760:1.0 
0.043910178597686284 1480:1.0 1483:1.0 
0.5555090309905732 2250:1.0 2359:1.0 
0.9997727193695399 1342:1.0 1578:1.0 
0.03079436503582947 2073:1.0 2330:1.0 
0.23764408771567047 1695:1.0 2162:1.0 
0.488586749394121 2942:1.0 2948:1.0 
0.24043798530763832 1940:1.0 2609:1.0 
0.2892645371988638 644:1.0 1327:1.0 
1.0 1062:1.0 1266:1.0 
0.5 486:1.0 1878:1.0 
0.40775757685046643 1063:1.0 1271:1.0 
1.0 1027:1.0 1216:1.0 
1.0 1533:1.0 2202:1.0 
1.0 1330:1.0 1712:1.0 
1.0 321:1.0 1073:1.0 
1.0 358:1.0 2502:1.0 
0.2783255332959491 2273:1.0 2793:1.0 
0.11120907119688406 2246:1.0 2885:1.0 
0.5550165549287099 134:1.0 2801:1.0 
1.0 525:1.0 1974:1.0 
1.0 1894:1.0 2382:1.0 
1.0 446:1.0 645:1.0 
0.04515250052763964 1480:1.0 2935:1.0 
0.07415340348781801 1696:1.0 2314:1.0 
0.3676846477244407 725:1.0 2519:1.0 
0.23861680424694828 122:1.0 2505:1.0 
1.0 1496:1.0 1874:1.0 
1.0 86:1.0 267:1.0 
0.30547342431227853 2233:1.0 2626:1.0 
1.0 2002:1.0 2006:1.0 
0.20958328948106314 1129:1.0 1189:1.0 
0.24426128743577907 2728:1.0 2820:1.0 
0.6449142658881994 717:1.0 890:1.0 
0.6112180370646059 1581:1.0 2089:1.0 
1.0 331:1.0 2809:1.0 
0.6111178574027808 1211:1.0 1488:1.0 
0.6110368314645267 621:1.0 1028:1.0 
0.40754765079026845 1603:1.0 1781:1.0 
0.8886664182290762 1953:1.0 2596:1.0 
0.4894926337356952 2389:1.0 2635:1.0 
1.0 1449:1.0 1802:1.0 
0.11125661112294949 1317:1.0 2490:1.0 
1.0 173:1.0 2391:1.0 
0.6888728082197569 265:1.0 2794:1.0 
1.0 103:1.0 1257:1.0 
0.6663153319526522 1606:1.0 2823:1.0 
0.702296481139392 21:1.0 277:1.0 
0.1995681639552432 1585:1.0 2720:1.0 
1.0 360:1.0 1056:1.0 
0.6889802091793417 423:1.0 954:1.0 
0.11069009361424173 2348:1.0 2583:1.0 
0.6112525722356731 720:1.0 1339:1.0 
0.11111924526612954 1805:1.0 2040:1.0 
1.0 578:1.0 1170:1.0 
1.0 738:1.0 1593:1.0 
0.4075387647529944 497:1.0 2141:1.0 
0.07437877573830401 823:1.0 1569:1.0 
0.09316757202763357 984:1.0 1092:1.0 
1.0 196:1.0 292:1.0 
0.2776258122029066 1812:1.0 2498:1.0 
0.5094051814746159 266:1.0 2420:1.0 
1.0 988:1.0 2144:1.0 
0.11122320975077549 669:1.0 1465:1.0 
1.0 1343:1.0 1919:1.0 
0.1112085040321121 1090:1.0 2301:1.0 
0.6112075723382084 771:1.0 1514:1.0 
0.28891070018079507 1954:1.0 1988:1.0 
0.9337986069567731 2327:1.0 2553:1.0 
0.20098179413853162 17:1.0 970:1.0 
1.0 890:1.0 1684:1.0 
1.0 1553:1.0 2551:1.0 
0.6111726780484822 378:1.0 977:1.0 
0.11114823725425865 170:1.0 1578:1.0 
1.0 2053:1.0 2638:1.0 
1.0 1051:1.0 2136:1.0 
0.12376333864110833 317:1.0 858:1.0 
1.0 2448:1.0 2948:1.0 
1.0 373:1.0 374:1.0 
0.2424682904963661 1809:1.0 2171:1.0 
0.6111842450567895 826:1.0 2142:1.0 
0.36586530874316653 2395:1.0 2994:1.0 
1.0 686:1.0 2703:1.0 
1.0 32:1.0 1798:1.0 
0.30577009548774636 1768:1.0 1837:1.0 
1.0 2600:1.0 2681:1.0 
0.35522054845171785 1726:1.0 1818:1.0 
0.7407626477828958 1661:1.0 2719:1.0 
1.0 14:1.0 1142:1.0 
0.573873775728281 1707:1.0 2782:1.0 
0.6439662630682774 890:1.0 2298:1.0 
1.0 1000:1.0 2399:1.0 
0.11026604777134633 2165:1.0 2272:1.0 
0.48579007981269823 650:1.0 2900:1.0 
0.2888953813057639 644:1.0 2256:1.0 
0.361056698700983 2084:1.0 2211:1.0 
0.4076096934371639 2672:1.0 2893:1.0 
1.0 354:1.0 1046:1.0 
0.11122416863969051 2627:1.0 2875:1.0 
0.4073049908038162 759:1.0 2695:1.0 
0.4075501251020457 1502:1.0 2845:1.0 
0.241270070208014 1680:1.0 1942:1.0 
1.0 878:1.0 1495:1.0 
0.30579481226894367 1382:1.0 2041:1.0 
0.35574615670127113 346:1.0 2550:1.0 
0.5328759125329272 1214:1.0 2569:1.0 
1.0 460:1.0 1830:1.0 
0.40779935820555635 244:1.0 475:1.0 
0.6113164525260393 783:1.0 1197:1.0 
0.6112265023056082 1009:1.0 1510:1.0 
1.0 967:1.0 1244:1.0 
0.6113722084694851 1619:1.0 2405:1.0 
0.40733738942782816 145:1.0 1188:1.0 
1.0 1862:1.0 2894:1.0 
1.0 375:1.0 1397:1.0 
0.2405930318751553 1279:1.0 2869:1.0 
0.0741391995129565 1351:1.0 1971:1.0 
0.07443006767505544 900:1.0 2217:1.0 
1.0 397:1.0 2392:1.0 
0.5469596118541167 659:1.0 1892:1.0 
1.0 1425:1.0 1474:1.0 
0.36571490976351795 2395:1.0 2866:1.0 
0.5010205939411533 2834:1.0 2998:1.0 
0.11369572262023961 907:1.0 2319:1.0 
0.1112242152734598 2526:1.0 2937:1.0 
0.8903140088295705 2407:1.0 2656:1.0 
0.07411251776238414 1121:1.0 1873:1.0 
0.07416739480316625 2257:1.0 2945:1.0 
0.08311689330087216 263:1.0 2575:1.0 
0.09570804487489046 686:1.0 2524:1.0 
0.40740672921963295 2210:1.0 2676:1.0 
0.40736185674125086 1662:1.0 2442:1.0 
0.08925175633391408 93:1.0 1246:1.0 
0.304815730181162 1526:1.0 2726:1.0 
0.3326108354571585 171:1.0 712:1.0 
0.17611912254148557 1807:1.0 2849:1.0 
0.7407436381585496 80:1.0 188:1.0 
0.407335349850801 411:1.0 2210:1.0 
0.4075177753302832 542:1.0 1016:1.0 
0.900821022458217 280:1.0 1992:1.0 
0.051383489271453336 1683:1.0 1872:1.0 
1.0 614:1.0 899:1.0 
0.11105265705915746 471:1.0 526:1.0 
0.4073151925792039 105:1.0 133:1.0 
0.1110091168015711 2656:1.0 2712:1.0 
0.35737109496271197 845:1.0 1237:1.0 
1.0 349:1.0 570:1.0 
0.23774438193548877 1639:1.0 1959:1.0 
1.0 405:1.0 1801:1.0 
0.11112960308127079 327:1.0 2440:1.0 
0.5093112043173946 36:1.0 1639:1.0 
0.23775652009317988 1182:1.0 2420:1.0 
0.4075103961864307 2143:1.0 2518:1.0 
1.0 1595:1.0 2052:1.0 
0.8114239774074123 1180:1.0 2720:1.0 
1.0 1290:1.0 1467:1.0 
0.6113397512529366 760:1.0 2463:1.0 
1.0 2230:1.0 2842:1.0 
0.48934839633042804 2209:1.0 2385:1.0 
0.08056341606305326 1178:1.0 2499:1.0 
0.04519496661927061 1213:1.0 2549:1.0 
0.002556447450777627 375:1.0 713:1.0 
1.0 274:1.0 2787:1.0 
0.11107885487233335 367:1.0 1643:1.0 
1.0 67:1.0 1015:1.0 
0.0743077638496947 887:1.0 1082:1.0 
0.33233890079438944 1986:1.0 2637:1.0 
0.08925927147980545 1761:1.0 2735:1.0 
0.11120659647927891 1774:1.0 2699:1.0 
0.40899990467302544 2523:1.0 2904:1.0 
0.6439073544920004 957:1.0 2086:1.0 
6.699861232018212E-4 563:1.0 1460:1.0 
0.4074315301460556 2305:1.0 2868:1.0 
0.24489861281366315 2527:1.0 2689:1.0 
1.0 1897:1.0 2245:1.0 
1.0 2067:1.0 2383:1.0 
0.0744641867225466 1689:1.0 2398:1.0 
0.11081274784851178 1175:1.0 1613:1.0 
1.0 1602:1.0 2750:1.0 
1.0 1157:1.0 2078:1.0 
1.0 1561:1.0 1699:1.0 
0.07429124577020962 435:1.0 2741:1.0 
1.0 2161:1.0 2910:1.0 
0.11128267808970035 1960:1.0 2647:1.0 
0.4075893944940754 1253:1.0 2336:1.0 
0.6110137881591602 1099:1.0 2043:1.0 
0.24503155010241873 1542:1.0 2184:1.0 
0.6448528750280105 957:1.0 1921:1.0 
1.0 1472:1.0 2216:1.0 
0.1114398131517621 1359:1.0 1628:1.0 
0.0741970942682536 1956:1.0 2309:1.0 
1.0 1444:1.0 2306:1.0 
1.0 1794:1.0 2083:1.0 
0.07414702582367819 755:1.0 2901:1.0 
1.0 1028:1.0 1143:1.0 
0.09919130832403802 227:1.0 310:1.0 
0.08855119014147367 639:1.0 933:1.0 
1.0 83:1.0 149:1.0 
0.0026165167525215305 151:1.0 860:1.0 
0.407348803333262 48:1.0 1915:1.0 
9.76676139242627E-4 129:1.0 1264:1.0 
0.5231540687046412 1543:1.0 2696:1.0 
1.0 726:1.0 2676:1.0 
1.0 586:1.0 2949:1.0 
0.611219150264166 1972:1.0 2105:1.0 
0.0894027926061767 804:1.0 1483:1.0 
0.0025175443257209607 962:1.0 2251:1.0 
0.044059996205402824 323:1.0 2762:1.0 
1.0 2196:1.0 2641:1.0 
0.38608821433149687 504:1.0 2192:1.0 
0.08856014232246612 1352:1.0 2132:1.0 
0.5004773126437156 386:1.0 1869:1.0 
0.5005047314307466 1700:1.0 2114:1.0 
1.0 1263:1.0 2964:1.0 
0.3059688874579142 463:1.0 1632:1.0 
0.07381488286888624 474:1.0 2252:1.0 
0.740868243121479 2284:1.0 2449:1.0 
0.3481634113207548 2147:1.0 2767:1.0 
0.40757349068041504 1898:1.0 2345:1.0 
0.7407481048826658 1586:1.0 2254:1.0 
0.11138069785079696 1633:1.0 2436:1.0 
0.1539211719412756 1222:1.0 2726:1.0 
0.38034631416736964 1721:1.0 2499:1.0 
1.0 915:1.0 2755:1.0 
0.6041273650320058 183:1.0 1931:1.0 
1.0 1359:1.0 1994:1.0 
0.11121172158472897 2694:1.0 2818:1.0 
1.0 743:1.0 1316:1.0 
1.0 978:1.0 1417:1.0 
1.0 1448:1.0 2547:1.0 
0.8889577710806857 241:1.0 1123:1.0 
0.7338145646003613 1668:1.0 2889:1.0 
0.9988210242389325 547:1.0 907:1.0 
0.29968393722495623 2091:1.0 2768:1.0 
0.17587496477128658 2696:1.0 2908:1.0 
0.40759475537005607 238:1.0 2308:1.0 
1.0 2024:1.0 2844:1.0 
0.04237232227796525 769:1.0 2989:1.0 
0.3054262873226098 461:1.0 1302:1.0 
1.0 2814:1.0 2954:1.0 
0.07419990353075995 1907:1.0 2860:1.0 
0.5997251239187436 1647:1.0 2949:1.0 
1.0 214:1.0 1112:1.0 
1.0 1004:1.0 2978:1.0 
0.48895058577206263 119:1.0 617:1.0 
0.40758716685608853 1790:1.0 1876:1.0 
0.11111025951813175 1308:1.0 2988:1.0 
1.0 728:1.0 2666:1.0 
0.5002727529152666 251:1.0 2012:1.0 
0.15594285577396746 2318:1.0 2636:1.0 
1.0 318:1.0 1523:1.0 
0.443632292501953 719:1.0 2805:1.0 
1.0 1194:1.0 1305:1.0 
0.7486046372975522 259:1.0 1067:1.0 
0.24137274152290578 157:1.0 476:1.0 
1.0 742:1.0 1465:1.0 
0.6113644694243108 2080:1.0 2338:1.0 
0.48753763090310764 278:1.0 597:1.0 
0.11123973597077635 727:1.0 1283:1.0 
0.6113201527003237 1293:1.0 1323:1.0 
0.40747020866142064 870:1.0 2686:1.0 
1.0 1385:1.0 2640:1.0 
1.0 1627:1.0 1938:1.0 
0.3053118624961194 1837:1.0 2370:1.0 
0.1733080618013307 1722:1.0 2130:1.0 
0.11096840164565758 643:1.0 2656:1.0 
1.0 2317:1.0 2837:1.0 
0.24203956267354246 673:1.0 2015:1.0 
0.0891232279625716 323:1.0 2897:1.0 
0.24167224071354157 125:1.0 2201:1.0 
0.6112442296399799 963:1.0 1344:1.0 
0.1111458884985696 2258:1.0 2367:1.0 
0.11116447730455548 1865:1.0 2467:1.0 
1.0 2290:1.0 2893:1.0 
0.3508743301534414 372:1.0 2130:1.0 
1.0 2333:1.0 2395:1.0 
0.6112182805244698 1577:1.0 2985:1.0 
0.3676711192540199 597:1.0 1764:1.0 
0.11192155420693956 321:1.0 470:1.0 
0.09924431325909408 945:1.0 1277:1.0 
0.11099710051348666 173:1.0 676:1.0 
0.33383209874665637 414:1.0 1922:1.0 
1.0 165:1.0 1363:1.0 
0.07352346045859678 101:1.0 1152:1.0 
0.07422174894448558 1381:1.0 2010:1.0 
0.6112020241348868 2531:1.0 2848:1.0 
1.0 11:1.0 1289:1.0 
0.1118859136638509 1533:1.0 2617:1.0 
0.07417764013062875 1351:1.0 2462:1.0 
0.12445752004320354 1530:1.0 1671:1.0 
0.33289144756368083 136:1.0 1922:1.0 
0.2108583679673008 600:1.0 2458:1.0 
1.0 528:1.0 980:1.0 
1.0 1524:1.0 2952:1.0 
0.013190384292697976 1059:1.0 1361:1.0 
0.12481277304981395 125:1.0 2395:1.0 
0.0739896586613829 900:1.0 1057:1.0 
1.0 1519:1.0 1555:1.0 
0.40771155393794944 319:1.0 721:1.0 
1.0 601:1.0 611:1.0 
0.5545949308006498 2152:1.0 2231:1.0 
0.29776145534907283 1073:1.0 2050:1.0 
0.07402357513358876 823:1.0 1475:1.0 
0.8892808461743367 1358:1.0 2987:1.0 
0.40751299453143797 105:1.0 768:1.0 
0.6112258238712922 1184:1.0 2910:1.0 
0.07406590692149756 572:1.0 1714:1.0 
0.7397400875240726 1507:1.0 2834:1.0 
0.3615586773286452 230:1.0 2183:1.0 
0.08937461564106666 1919:1.0 2735:1.0 
3.522231051383551E-4 637:1.0 2863:1.0 
0.6109840698032503 830:1.0 1991:1.0 
0.11137254536151886 997:1.0 1273:1.0 
0.6108872917105057 726:1.0 2791:1.0 
0.9708980086743182 419:1.0 1778:1.0 
0.07401241996604568 2018:1.0 2163:1.0 
1.0 2193:1.0 2336:1.0 
1.0 517:1.0 1033:1.0 
1.0 21:1.0 565:1.0 
0.4175153000677763 212:1.0 1073:1.0 
0.11120709163253922 549:1.0 2574:1.0 
0.431880219987419 834:1.0 2443:1.0 
0.8616461122480925 1859:1.0 2285:1.0 
0.7788157080209469 54:1.0 1140:1.0 
0.07429377427501435 922:1.0 960:1.0 
0.025006421319620054 474:1.0 1208:1.0 
0.6111483627308901 1200:1.0 1405:1.0 
0.6112015424086423 627:1.0 1607:1.0 
1.0 701:1.0 1351:1.0 
0.4892068160066425 2180:1.0 2335:1.0 
0.8040866519509875 107:1.0 1165:1.0 
0.8421226962673198 1976:1.0 2529:1.0 
0.5234543082921579 301:1.0 345:1.0 
0.11102331536782392 603:1.0 841:1.0 
0.6369397227532476 316:1.0 691:1.0 
1.0 224:1.0 693:1.0 
1.0 998:1.0 1138:1.0 
0.0010225037107907398 1313:1.0 2155:1.0 
0.11109161152563729 2289:1.0 2911:1.0 
0.40743209073311265 1712:1.0 2141:1.0 
0.354241031460351 674:1.0 739:1.0 
0.30548155160334634 601:1.0 1065:1.0 
0.08391124494630328 40:1.0 419:1.0 
0.6913405217639114 430:1.0 1092:1.0 
0.6110571899640902 1604:1.0 2833:1.0 
0.0951554081006537 165:1.0 1087:1.0 
1.0 189:1.0 255:1.0 
5.587807984311077E-4 583:1.0 726:1.0 
1.0 480:1.0 1471:1.0 
0.5554937342797975 2364:1.0 2416:1.0 
1.0 1532:1.0 2843:1.0 
0.27760267131030714 2498:1.0 2675:1.0 
1.0 1345:1.0 1651:1.0 
0.9835908215913909 427:1.0 2734:1.0 
1.0 326:1.0 512:1.0 
0.491081228486105 1068:1.0 2248:1.0 
0.3616153975199404 992:1.0 1371:1.0 
0.25589040587539147 920:1.0 1137:1.0 
0.19520711030882984 790:1.0 1858:1.0 
1.0 628:1.0 1123:1.0 
0.61121681386136 2096:1.0 2115:1.0 
1.0 1497:1.0 2092:1.0 
0.05547294245002468 2237:1.0 2576:1.0 
0.002866938819651388 778:1.0 930:1.0 
1.0 2303:1.0 2772:1.0 
1.0 45:1.0 1903:1.0 
0.001890644250235829 556:1.0 2165:1.0 
0.40725164575012157 496:1.0 1900:1.0 
0.5247289386890517 181:1.0 1906:1.0 
0.6449981219048847 1782:1.0 2009:1.0 
0.8449863217503669 776:1.0 2189:1.0 
0.40987267446729225 832:1.0 2228:1.0 
0.5555347307268993 1804:1.0 2179:1.0 
0.07366456589095033 803:1.0 1437:1.0 
0.6113043778466236 1478:1.0 2800:1.0 
0.6112741996916432 2264:1.0 2852:1.0 
0.11139485818619124 2197:1.0 2969:1.0 
1.0 765:1.0 2330:1.0 
0.34862971672413134 18:1.0 2387:1.0 
1.0 1940:1.0 2990:1.0 
1.0 184:1.0 1722:1.0 
0.741011265365497 188:1.0 2355:1.0 
1.0 1190:1.0 1365:1.0 
3.4880233665723903E-4 1028:1.0 1104:1.0 
1.0 1750:1.0 2480:1.0 
0.48927605450459616 164:1.0 1049:1.0 
0.6656565286048832 1397:1.0 2270:1.0 
1.0 237:1.0 1436:1.0 
0.08643168971939508 546:1.0 2251:1.0 
0.07401212382067351 848:1.0 1080:1.0 
0.07398111321415829 573:1.0 873:1.0 
3.198917724644146E-4 2071:1.0 2430:1.0 
0.7329419391406582 417:1.0 999:1.0 
1.0 1832:1.0 2527:1.0 
0.3893358623178914 360:1.0 2498:1.0 
0.08926413806792435 593:1.0 2194:1.0 
0.11122340168901776 1611:1.0 2235:1.0 
1.0 2733:1.0 2775:1.0 
0.43699899365222217 1600:1.0 2767:1.0 
0.07407156577109542 1399:1.0 2915:1.0 
0.6070328353664874 1023:1.0 2986:1.0 
0.3056207156012827 1850:1.0 2176:1.0 
0.7789936092246682 2152:1.0 2316:1.0 
0.11123396071628688 2554:1.0 2601:1.0 
0.22530817369973738 281:1.0 2865:1.0 
1.0 27:1.0 48:1.0 
1.0 364:1.0 2172:1.0 
0.8884280904284446 49:1.0 2558:1.0 
0.6114542289843083 252:1.0 1995:1.0 
0.7407117226125646 1219:1.0 1946:1.0 
1.0 1907:1.0 2089:1.0 
0.40730754365782923 2064:1.0 2641:1.0 
0.4077295140691905 1552:1.0 1624:1.0 
1.0 943:1.0 2962:1.0 
0.7378858498125226 680:1.0 2754:1.0 
0.5795173487283578 7:1.0 358:1.0 
1.0 1637:1.0 2371:1.0 
1.0 2164:1.0 2634:1.0 
0.34882248046387143 1474:1.0 2387:1.0 
0.40719916655789046 672:1.0 703:1.0 
0.407505050281497 1253:1.0 2404:1.0 
1.0 1032:1.0 2922:1.0 
0.1502665372592101 575:1.0 2929:1.0 
0.3056514576351476 1890:1.0 2626:1.0 
0.38672569851884436 17:1.0 2607:1.0 
0.6454190557706623 606:1.0 948:1.0 
0.11671007266179181 167:1.0 1509:1.0 
1.0 1072:1.0 1630:1.0 
0.44491830668981625 1877:1.0 2962:1.0 
1.0 758:1.0 1231:1.0 
0.28862506414571515 588:1.0 717:1.0 
1.0 1382:1.0 1973:1.0 
0.8055443376889965 1521:1.0 2220:1.0 
0.28871015788430177 2009:1.0 2403:1.0 
0.24384636394467152 737:1.0 2302:1.0 
1.0 834:1.0 1727:1.0 
1.0 1046:1.0 1828:1.0 
1.0 675:1.0 2897:1.0 
0.08911296853971484 274:1.0 2874:1.0 
0.4076179695937765 2590:1.0 2980:1.0 
1.0 2261:1.0 2433:1.0 
0.3894356541002762 1129:1.0 1647:1.0 
0.7177143918336961 834:1.0 1237:1.0 
0.4077100661361734 191:1.0 1419:1.0 
1.0 1943:1.0 2014:1.0 
0.6112532676566369 1056:1.0 1270:1.0 
1.0 1260:1.0 2471:1.0 
0.8881071913940839 221:1.0 675:1.0 
1.0 2839:1.0 2874:1.0 
1.0 1747:1.0 2101:1.0 
1.0 133:1.0 334:1.0 
2.612570757207777E-4 1186:1.0 1212:1.0 
0.3056206764025855 146:1.0 1382:1.0 
0.7783463873925827 2270:1.0 2493:1.0 
0.24727949357950982 979:1.0 2201:1.0 
0.15601115482377553 524:1.0 1503:1.0 
0.9996075342354713 1994:1.0 2475:1.0 
0.7235491049070999 1412:1.0 1872:1.0 
0.40773468580916616 138:1.0 2847:1.0 
1.0 65:1.0 2377:1.0 
1.0 1011:1.0 2227:1.0 
0.2883690341149855 425:1.0 2705:1.0 
0.6112783308982466 182:1.0 1119:1.0 
0.20596570951078846 183:1.0 2876:1.0 
0.4077406824237222 242:1.0 598:1.0 
0.30559852750774635 415:1.0 2502:1.0 
1.0 2011:1.0 2790:1.0 
1.0 241:1.0 2676:1.0 
0.04378886494615669 239:1.0 1095:1.0 
0.010708937133442314 970:1.0 1403:1.0 
0.7562579708510573 999:1.0 1132:1.0 
1.0 1981:1.0 2003:1.0 
1.0 1770:1.0 2669:1.0 
0.11112144194992618 516:1.0 581:1.0 
1.0 806:1.0 1083:1.0 
0.5337655146129119 814:1.0 1933:1.0 
0.04510011396129082 1879:1.0 2230:1.0 
0.36170873022712524 406:1.0 2992:1.0 
0.09554061484156698 2249:1.0 2431:1.0 
0.289457196023617 2058:1.0 2748:1.0 
0.4113038153413658 557:1.0 1387:1.0 
0.5558757199339969 1597:1.0 2049:1.0 
0.6999438983831183 872:1.0 1008:1.0 
0.5553898655470877 294:1.0 880:1.0 
0.3617353211843248 2069:1.0 2281:1.0 
0.8611066858678896 1658:1.0 2984:1.0 
0.11121584515816052 117:1.0 1325:1.0 
0.11111173715017283 307:1.0 1311:1.0 
0.11142887226632134 530:1.0 2452:1.0 
1.0 1474:1.0 2979:1.0 
1.0 50:1.0 295:1.0 
0.11111566923809948 1402:1.0 2991:1.0 
1.0 53:1.0 2288:1.0 
0.40728163923658695 754:1.0 1425:1.0 
1.0 965:1.0 1115:1.0 
1.0 1139:1.0 1540:1.0 
0.8058852961552398 1521:1.0 2700:1.0 
0.7751396229427037 325:1.0 2187:1.0 
0.7551057284298148 2335:1.0 2889:1.0 
0.36164600720550155 1955:1.0 2137:1.0 
0.32362793866229234 910:1.0 2804:1.0 
0.047316238343393324 667:1.0 769:1.0 
1.0 55:1.0 1010:1.0 
0.5245549298127221 1498:1.0 1722:1.0 
0.45262531526856464 1006:1.0 2619:1.0 
0.5913075414342038 1023:1.0 1463:1.0 
0.11121014100327048 41:1.0 1289:1.0 
1.0 702:1.0 768:1.0 
0.6112840427110351 529:1.0 2094:1.0 
0.6111153685836664 104:1.0 287:1.0 
0.6111842450567895 932:1.0 2540:1.0 
0.7411229952557208 1295:1.0 2402:1.0 
0.305109852582578 330:1.0 2176:1.0 
0.2115933567906005 17:1.0 1027:1.0 
0.11067986716283892 1264:1.0 2661:1.0 
0.08998246183649586 167:1.0 212:1.0 
9.578874198955811E-4 2348:1.0 2435:1.0 
0.2885279831719962 1897:1.0 2533:1.0 
0.7406037635636903 554:1.0 1269:1.0 
0.5742085404138075 535:1.0 1927:1.0 
0.2885497483224917 1694:1.0 1921:1.0 
0.07438068187357216 1964:1.0 2127:1.0 
0.11110055721056455 1612:1.0 1841:1.0 
0.17987788756378356 1992:1.0 2381:1.0 
0.6892157880142415 2054:1.0 2920:1.0 
0.36155837239368765 403:1.0 818:1.0 
1.0 529:1.0 1510:1.0 
0.0739845003583122 45:1.0 2586:1.0 
0.4044805768338471 375:1.0 1070:1.0 
0.11140937342965951 764:1.0 1848:1.0 
0.11111101702010728 1598:1.0 2392:1.0 
0.24522988995380984 1718:1.0 2302:1.0 
1.0 997:1.0 1061:1.0 
0.24516395066469537 2837:1.0 2942:1.0 
0.4426908709594593 1513:1.0 2374:1.0 
0.7908448678726653 43:1.0 748:1.0 
0.07427545446868475 981:1.0 2076:1.0 
1.0 619:1.0 1733:1.0 
0.6112174031246287 29:1.0 2439:1.0 
1.0 475:1.0 806:1.0 
1.0 1990:1.0 2085:1.0 
0.6111677368218081 102:1.0 744:1.0 
0.40998120461697485 832:1.0 2232:1.0 
0.4073438545446436 498:1.0 1360:1.0 
0.3058984836727568 2168:1.0 2502:1.0 
0.07395805812905742 1574:1.0 2397:1.0 
0.07474563476901586 730:1.0 856:1.0 
0.23933913395875805 939:1.0 1137:1.0 
0.6113675629389854 1003:1.0 1038:1.0 
0.3505301551469189 1741:1.0 2768:1.0 
0.24453736355127745 2691:1.0 2820:1.0 
1.0 1530:1.0 1936:1.0 
0.3970704122938449 1479:1.0 2438:1.0 
1.0 1278:1.0 2592:1.0 
1.0 256:1.0 1292:1.0 
1.0 1537:1.0 2548:1.0 
0.6113402500616044 473:1.0 794:1.0 
0.6112155324147119 523:1.0 1220:1.0 
1.0 329:1.0 2217:1.0 
0.533215428718331 524:1.0 1579:1.0 
0.2446392224435293 2759:1.0 2776:1.0 
0.07394461700755339 82:1.0 2621:1.0 
0.24156394454214716 1507:1.0 2297:1.0 
0.6997362803430148 405:1.0 1008:1.0 
0.30591936683118326 1376:1.0 2113:1.0 
1.0 1967:1.0 2471:1.0 
0.8608150696014512 968:1.0 1744:1.0 
1.0 47:1.0 926:1.0 
0.30542033089418147 852:1.0 2207:1.0 
0.2889855900863692 1726:1.0 1739:1.0 
0.6111895892616727 1747:1.0 2545:1.0 
0.40741498919345787 2112:1.0 2650:1.0 
1.0 1324:1.0 2520:1.0 
0.07411252246714573 1884:1.0 2107:1.0 
0.77861882771513 431:1.0 817:1.0 
1.0 57:1.0 540:1.0 
1.0 492:1.0 2138:1.0 
1.0 407:1.0 2335:1.0 
1.0 363:1.0 371:1.0 
0.6022538061147265 457:1.0 1931:1.0 
0.0015611799588713393 1221:1.0 1601:1.0 
1.0 1998:1.0 2075:1.0 
1.0 1950:1.0 2076:1.0 
0.7512413741205884 1923:1.0 2369:1.0 
1.0 1287:1.0 2879:1.0 
1.0 1:1.0 2165:1.0 
1.0 2407:1.0 2555:1.0 
0.2892757154904917 931:1.0 2169:1.0 
0.10860857390321627 556:1.0 1493:1.0 
0.7405924037441802 520:1.0 2809:1.0 
1.0 1314:1.0 2512:1.0 
1.0 1027:1.0 1467:1.0 
0.8609667978466983 386:1.0 1235:1.0 
0.5574873351724647 325:1.0 772:1.0 
0.7338625461398844 2944:1.0 2963:1.0 
0.07406289579087372 261:1.0 922:1.0 
1.0 2030:1.0 2195:1.0 
1.0 2810:1.0 2871:1.0 
0.7407671591204499 491:1.0 1652:1.0 
1.0 93:1.0 2751:1.0 
0.5739766011614749 929:1.0 2546:1.0 
1.0 1908:1.0 1917:1.0 
0.40577015330863236 1165:1.0 2438:1.0 
1.0 352:1.0 451:1.0 
0.11122798355063424 1142:1.0 2383:1.0 
0.7410167461790754 1435:1.0 2975:1.0 
1.0 1612:1.0 1677:1.0 
0.740810401721943 911:1.0 1035:1.0 
0.05557254801556155 2332:1.0 2829:1.0 
0.6114025501110518 1650:1.0 2752:1.0 
0.24124129902368074 1942:1.0 1978:1.0 
0.11122139374104034 1392:1.0 1870:1.0 
1.0 1746:1.0 2914:1.0 
0.11125406729634252 194:1.0 329:1.0 
0.4748926771541938 2738:1.0 2804:1.0 
0.0902448024403738 2751:1.0 2989:1.0 
0.11089471380351373 337:1.0 637:1.0 
0.17371058445658188 736:1.0 1534:1.0 
0.3662239642308788 2007:1.0 2632:1.0 
0.5554887522366412 2206:1.0 2668:1.0 
1.0 727:1.0 1956:1.0 
0.6111328065367302 1093:1.0 1935:1.0 
1.0 279:1.0 831:1.0 
1.0 269:1.0 2240:1.0 
1.0 1160:1.0 1165:1.0 
0.6438969347628971 1138:1.0 1720:1.0 
0.11414186673891208 1589:1.0 2374:1.0 
1.0 898:1.0 1477:1.0 
1.0 2649:1.0 2808:1.0 
0.611196496207404 2219:1.0 2645:1.0 
0.07490200238999556 620:1.0 2303:1.0 
1.0 405:1.0 2412:1.0 
1.0 1660:1.0 2123:1.0 
0.08855937063827612 374:1.0 1196:1.0 
0.24378517200235145 2774:1.0 2837:1.0 
0.7461029906395282 430:1.0 1473:1.0 
0.4076326795444988 232:1.0 2110:1.0 
1.0 23:1.0 312:1.0 
0.2095403788444471 2438:1.0 2758:1.0 
0.11119318950662285 37:1.0 2070:1.0 
0.24028323581352123 1047:1.0 1719:1.0 
0.08590281331552052 667:1.0 1771:1.0 
0.08965921771795138 492:1.0 1127:1.0 
0.34762113105531733 372:1.0 2849:1.0 
0.7495563143099524 1715:1.0 2268:1.0 
0.023517376208832375 903:1.0 1257:1.0 
0.6098919608534679 611:1.0 1081:1.0 
0.2437949471372225 2857:1.0 2993:1.0 
0.07439066938918554 1937:1.0 2163:1.0 
1.0 80:1.0 1225:1.0 
0.48914915764525413 464:1.0 2513:1.0 
0.6984469441202323 736:1.0 2062:1.0 
0.11131854071158753 982:1.0 1967:1.0 
0.6087769222519801 1969:1.0 1977:1.0 
0.6517172117327101 301:1.0 736:1.0 
0.28869912130368147 1738:1.0 1802:1.0 
0.022115449397050208 571:1.0 2381:1.0 
1.0 2158:1.0 2476:1.0 
1.0 618:1.0 1224:1.0 
0.6112051364567872 1948:1.0 2722:1.0 
0.33312222246525536 88:1.0 2750:1.0 
0.6111031443682011 300:1.0 2684:1.0 
0.5963618976542922 832:1.0 1573:1.0 
0.8605190237929079 1148:1.0 2956:1.0 
0.40756515422038425 445:1.0 1425:1.0 
0.6887258618988501 265:1.0 1455:1.0 
1.0 1481:1.0 2373:1.0 
1.0 1611:1.0 2029:1.0 
1.0 1588:1.0 2056:1.0 
0.407714283312427 314:1.0 679:1.0 
0.8891014780738118 134:1.0 2225:1.0 
0.811340010316661 1071:1.0 2949:1.0 
0.045156887397452605 688:1.0 2570:1.0 
0.8898081376527945 1513:1.0 2976:1.0 
0.4869222687388637 1653:1.0 2223:1.0 
0.8378687395237056 610:1.0 659:1.0 
0.8610561968811118 357:1.0 1438:1.0 
1.0 1514:1.0 2995:1.0 
0.7401638099355142 137:1.0 510:1.0 
0.7408009139245495 1035:1.0 1827:1.0 
0.6112216140950495 1698:1.0 2680:1.0 
0.07394392458194773 755:1.0 1674:1.0 
0.07438343435340727 141:1.0 1903:1.0 
0.20892291755642084 107:1.0 2376:1.0 
1.0 1430:1.0 2559:1.0 
1.0 1657:1.0 2321:1.0 
0.40761507554822196 2259:1.0 2817:1.0 
0.2552293830383717 427:1.0 647:1.0 
0.8360991257073919 1294:1.0 2506:1.0 
0.23647109585254536 203:1.0 1433:1.0 
1.0 64:1.0 2667:1.0 
1.0 515:1.0 2187:1.0 
1.0 1899:1.0 2784:1.0 
0.3914304659338017 1509:1.0 2075:1.0 
0.3052906216196557 1376:1.0 2999:1.0 
0.5001896294815658 2084:1.0 2300:1.0 
0.8609277873051897 401:1.0 1319:1.0 
1.0 720:1.0 962:1.0 
1.0 84:1.0 2572:1.0 
0.2552481301440008 3:1.0 798:1.0 
1.0 304:1.0 424:1.0 
0.0010645994585329333 1081:1.0 2088:1.0 
0.11120282443079746 784:1.0 1350:1.0 
0.6111865972170563 1895:1.0 1975:1.0 
1.0 390:1.0 960:1.0 
1.0 1210:1.0 1743:1.0 
0.6113603772902071 217:1.0 1685:1.0 
0.611208665925622 875:1.0 2182:1.0 
0.21151774143877836 17:1.0 2269:1.0 
-1.0 1252:1.0 2102:1.0 
-1.0 790:1.0 1561:1.0 
-1.0 408:1.0 2750:1.0 
-1.0 727:1.0 1753:1.0 
-1.0 134:1.0 2132:1.0 
-1.0 1434:1.0 2315:1.0 
-0.925868003593584 1312:1.0 2682:1.0 
-1.0 92:1.0 2346:1.0 
-1.0 370:1.0 1870:1.0 
-1.0 546:1.0 2109:1.0 
-1.0 532:1.0 1899:1.0 
-1.0 1237:1.0 2528:1.0 
-1.0 372:1.0 2856:1.0 
-1.0 1129:1.0 2201:1.0 
-1.0 1239:1.0 1851:1.0 
-1.0 1228:1.0 2799:1.0 
-0.8888673186815286 628:1.0 2239:1.0 
-1.0 628:1.0 2354:1.0 
-1.0 382:1.0 1828:1.0 
-1.0 716:1.0 1907:1.0 
-0.388785580833645 295:1.0 1536:1.0 
-1.0 326:1.0 2807:1.0 
-1.0 1096:1.0 1669:1.0 
-1.0 831:1.0 2049:1.0 
-1.0 771:1.0 1712:1.0 
-1.0 766:1.0 1908:1.0 
-0.3886480784885862 126:1.0 2412:1.0 
-1.0 628:1.0 2643:1.0 
-0.9107099763704887 806:1.0 2842:1.0 
-1.0 164:1.0 1977:1.0 
-1.0 1386:1.0 2253:1.0 
-1.0 799:1.0 2056:1.0 
-1.0 966:1.0 2975:1.0 
-0.7112168904693202 1416:1.0 1802:1.0 
-0.6786037517577489 59:1.0 1799:1.0 
-1.0 1150:1.0 1567:1.0 
-1.0 251:1.0 2011:1.0 
-1.0 4:1.0 1708:1.0 
-1.0 1023:1.0 1646:1.0 
-1.0 1251:1.0 2963:1.0 
-1.0 1057:1.0 2430:1.0 
-1.0 121:1.0 1878:1.0 
-1.0 934:1.0 2622:1.0 
-1.0 586:1.0 2275:1.0 
-1.0 342:1.0 2732:1.0 
-1.0 1290:1.0 1868:1.0 
-1.0 1330:1.0 2620:1.0 
-1.0 549:1.0 1569:1.0 
-1.0 518:1.0 2319:1.0 
-1.0 611:1.0 2476:1.0 
-0.6193629494928139 1185:1.0 2016:1.0 
-1.0 908:1.0 2572:1.0 
-0.8886274546384811 654:1.0 2388:1.0 
-1.0 1139:1.0 1533:1.0 
-1.0 1414:1.0 2400:1.0 
-1.0 279:1.0 2407:1.0 
-1.0 1027:1.0 2395:1.0 
-1.0 618:1.0 1681:1.0 
-1.0 49:1.0 2549:1.0 
-1.0 434:1.0 1709:1.0 
-1.0 1445:1.0 2373:1.0 
-1.0 1038:1.0 2693:1.0 
-1.0 767:1.0 2482:1.0 
-1.0 465:1.0 2956:1.0 
-1.0 1459:1.0 2641:1.0 
-1.0 1004:1.0 2931:1.0 
-1.0 16:1.0 2962:1.0 
-1.0 1223:1.0 2357:1.0 
-1.0 1166:1.0 2343:1.0 
-1.0 1008:1.0 2133:1.0 
-1.0 1324:1.0 2948:1.0 
-1.0 626:1.0 2639:1.0 
-1.0 1472:1.0 2294:1.0 
-0.925980065979797 812:1.0 1524:1.0 
-1.0 1249:1.0 2531:1.0 
-1.0 396:1.0 2033:1.0 
-1.0 179:1.0 2573:1.0 
-1.0 1425:1.0 1730:1.0 
-1.0 100:1.0 1914:1.0 
-0.8887854801431918 1282:1.0 1670:1.0 
-1.0 1191:1.0 1577:1.0 
-1.0 625:1.0 2218:1.0 
-0.8244619855001939 27:1.0 2761:1.0 
-1.0 1252:1.0 2231:1.0 
-1.0 1015:1.0 2511:1.0 
-1.0 1384:1.0 1777:1.0 
-1.0 466:1.0 2533:1.0 
-1.0 1238:1.0 2828:1.0 
-0.554929751640868 983:1.0 1953:1.0 
-1.0 451:1.0 2755:1.0 
-1.0 375:1.0 2456:1.0 
-1.0 1160:1.0 2293:1.0 
-1.0 1344:1.0 2483:1.0 
-1.0 149:1.0 2592:1.0 
-1.0 1323:1.0 2078:1.0 
-0.7599531509615087 1125:1.0 2642:1.0 
-1.0 1203:1.0 1821:1.0 
-1.0 1274:1.0 2024:1.0 
-1.0 241:1.0 2279:1.0 
-1.0 133:1.0 2385:1.0 
-1.0 1202:1.0 2286:1.0 
-1.0 140:1.0 2221:1.0 
-1.0 742:1.0 2447:1.0 
-1.0 349:1.0 2772:1.0 
-0.7117446486024309 606:1.0 2667:1.0 
-1.0 356:1.0 2676:1.0 
-1.0 172:1.0 2318:1.0 
-1.0 274:1.0 1526:1.0 
-1.0 1373:1.0 1521:1.0 
-1.0 7:1.0 2172:1.0 
-1.0 298:1.0 2249:1.0 
-0.5612546431500767 791:1.0 1547:1.0 
-1.0 472:1.0 2335:1.0 
-1.0 1163:1.0 2947:1.0 
-1.0 95:1.0 2807:1.0 
-1.0 1302:1.0 1642:1.0 
-1.0 965:1.0 2667:1.0 
-1.0 1481:1.0 2333:1.0 
-1.0 575:1.0 1801:1.0 
-1.0 195:1.0 2670:1.0 
-1.0 849:1.0 1722:1.0 
-1.0 1346:1.0 2465:1.0 
-1.0 663:1.0 1555:1.0 
-1.0 4:1.0 2798:1.0 
-1.0 1152:1.0 2945:1.0 
-1.0 809:1.0 2782:1.0 
-1.0 691:1.0 1510:1.0 
-1.0 670:1.0 2497:1.0 
-1.0 14:1.0 1514:1.0 
-1.0 174:1.0 2173:1.0 
-1.0 733:1.0 2159:1.0 
-1.0 889:1.0 2420:1.0 
-1.0 1028:1.0 1818:1.0 
-0.5926247987929514 333:1.0 2590:1.0 
-1.0 948:1.0 2948:1.0 
-1.0 224:1.0 2559:1.0 
-1.0 1383:1.0 2200:1.0 
-1.0 675:1.0 1836:1.0 
-1.0 1430:1.0 2567:1.0 
-1.0 825:1.0 2276:1.0 
-0.9051278796928444 50:1.0 2003:1.0 
-1.0 278:1.0 1872:1.0 
-1.0 119:1.0 2591:1.0 
-1.0 106:1.0 1983:1.0 
-1.0 710:1.0 1736:1.0 
-1.0 1333:1.0 2264:1.0 
-1.0 852:1.0 2653:1.0 
-1.0 183:1.0 2053:1.0 
-1.0 685:1.0 2879:1.0 
-1.0 369:1.0 2745:1.0 
-1.0 162:1.0 2492:1.0 
-1.0 450:1.0 2369:1.0 
-1.0 411:1.0 2240:1.0 
-1.0 846:1.0 2095:1.0 
-1.0 861:1.0 2101:1.0 
-0.5926567496647245 735:1.0 2856:1.0 
-1.0 545:1.0 2606:1.0 
-1.0 899:1.0 2889:1.0 
-1.0 172:1.0 1798:1.0 
-1.0 47:1.0 1708:1.0 
-1.0 8:1.0 2438:1.0 
-1.0 52:1.0 1611:1.0 
-1.0 520:1.0 2914:1.0 
-1.0 119:1.0 2555:1.0 
-1.0 756:1.0 2142:1.0 
-1.0 221:1.0 1683:1.0 
-1.0 464:1.0 1645:1.0 
-1.0 1479:1.0 2953:1.0 
-1.0 1306:1.0 1699:1.0 
-0.567249525046641 845:1.0 1881:1.0 
-0.4668610016963077 441:1.0 2917:1.0 
-1.0 513:1.0 2905:1.0 
-0.2591613103660238 1383:1.0 2905:1.0 
-1.0 99:1.0 2502:1.0 
-1.0 294:1.0 2532:1.0 
-1.0 1323:1.0 1830:1.0 
-1.0 728:1.0 2332:1.0 
-1.0 800:1.0 1511:1.0 
-1.0 509:1.0 1956:1.0 
-0.9258561827833679 69:1.0 2309:1.0 
-1.0 93:1.0 2321:1.0 
-1.0 702:1.0 1579:1.0 
-1.0 1337:1.0 2929:1.0 
-1.0 3:1.0 1994:1.0 
-1.0 1497:1.0 2290:1.0 
-1.0 236:1.0 1586:1.0 
-1.0 188:1.0 1586:1.0 
-1.0 273:1.0 2676:1.0 
-1.0 538:1.0 2003:1.0 
-1.0 639:1.0 2457:1.0 
-0.5546678465581927 719:1.0 2172:1.0 
-0.38887289062165864 1328:1.0 1595:1.0 
-1.0 691:1.0 1913:1.0 
-0.6520601054348192 1115:1.0 2761:1.0 
-1.0 647:1.0 1801:1.0 
-1.0 188:1.0 2473:1.0 
-1.0 207:1.0 2834:1.0 
-1.0 423:1.0 2441:1.0 
-1.0 1158:1.0 2540:1.0 
-1.0 950:1.0 2833:1.0 
-1.0 89:1.0 2250:1.0 
-1.0 1278:1.0 1612:1.0 
-1.0 1494:1.0 2599:1.0 
-1.0 1361:1.0 2366:1.0 
-1.0 876:1.0 1825:1.0 
-1.0 405:1.0 2745:1.0 
-1.0 1485:1.0 2406:1.0 
-1.0 1499:1.0 2811:1.0 
-1.0 529:1.0 1916:1.0 
-1.0 1488:1.0 1733:1.0 
-1.0 1083:1.0 2193:1.0 
-1.0 142:1.0 2434:1.0 
-1.0 852:1.0 1931:1.0 
-1.0 527:1.0 1583:1.0 
-1.0 446:1.0 2924:1.0 
-1.0 553:1.0 2435:1.0 
-1.0 1061:1.0 1946:1.0 
-1.0 1174:1.0 1977:1.0 
-0.92590261278587 14:1.0 1974:1.0 
-1.0 474:1.0 1920:1.0 
-1.0 1251:1.0 2947:1.0 
-1.0 1343:1.0 2801:1.0 
-1.0 969:1.0 2993:1.0 
-1.0 460:1.0 2904:1.0 
-0.592504578958847 1203:1.0 2341:1.0 
-1.0 978:1.0 2837:1.0 
-1.0 305:1.0 2336:1.0 
-0.7897073376373898 1463:1.0 2511:1.0 
-0.46161984697481656 1185:1.0 2529:1.0 
-1.0 1348:1.0 1703:1.0 
-1.0 111:1.0 2941:1.0 
-1.0 23:1.0 2143:1.0 
-0.8887721646945842 531:1.0 1702:1.0 
-1.0 218:1.0 1899:1.0 
-1.0 1340:1.0 2187:1.0 
-1.0 89:1.0 1860:1.0 
-1.0 834:1.0 2335:1.0 
-1.0 1401:1.0 1782:1.0 
-1.0 1248:1.0 2079:1.0 
-1.0 11:1.0 2733:1.0 
-0.8889093629811775 32:1.0 2426:1.0 
-1.0 1210:1.0 2318:1.0 
-1.0 15:1.0 2877:1.0 
-1.0 103:1.0 2330:1.0 
-1.0 967:1.0 2548:1.0 
-1.0 238:1.0 2161:1.0 
-1.0 1370:1.0 1925:1.0 
-0.9257685956000402 707:1.0 1794:1.0 
-1.0 1143:1.0 2652:1.0 
-1.0 1354:1.0 2530:1.0 
-1.0 539:1.0 2423:1.0 
-0.8888567212680212 1046:1.0 2760:1.0 
-1.0 1010:1.0 1533:1.0 
-1.0 1496:1.0 2183:1.0 
-1.0 578:1.0 1961:1.0 
-0.2913226592239445 1249:1.0 2034:1.0 
-1.0 400:1.0 2786:1.0 
-1.0 1033:1.0 1991:1.0 
-1.0 6:1.0 1527:1.0 
-1.0 1328:1.0 1603:1.0 
-1.0 771:1.0 2775:1.0 
-1.0 331:1.0 1720:1.0 
-0.7595285192938153 1464:1.0 2998:1.0 
-1.0 1006:1.0 1684:1.0 
-1.0 985:1.0 1679:1.0 
-1.0 110:1.0 2004:1.0 
-1.0 259:1.0 2718:1.0 
-1.0 1027:1.0 1530:1.0 
-1.0 358:1.0 1905:1.0 
-1.0 295:1.0 2149:1.0 
-1.0 1126:1.0 2487:1.0 
-1.0 56:1.0 2027:1.0 
-1.0 407:1.0 1503:1.0 
-1.0 498:1.0 2957:1.0 
-1.0 1467:1.0 2750:1.0 
-1.0 687:1.0 2271:1.0 
-1.0 1294:1.0 2150:1.0 
-1.0 21:1.0 2402:1.0 
-1.0 1207:1.0 2909:1.0 
-1.0 431:1.0 2656:1.0 
-0.9113566522051437 876:1.0 2894:1.0 
-1.0 1461:1.0 2735:1.0 
-1.0 250:1.0 2307:1.0 
-0.8887867417505053 1276:1.0 1908:1.0 
-1.0 967:1.0 1608:1.0 
-1.0 1416:1.0 2014:1.0 
-1.0 765:1.0 2664:1.0 
-1.0 309:1.0 2996:1.0 
-1.0 835:1.0 2637:1.0 
-0.5925481692560717 653:1.0 1826:1.0 
-1.0 1396:1.0 1713:1.0 
-1.0 1016:1.0 1619:1.0 
-1.0 1195:1.0 2513:1.0 
-1.0 1185:1.0 2216:1.0 
-1.0 84:1.0 2669:1.0 
-1.0 1222:1.0 1819:1.0 
-1.0 1008:1.0 1922:1.0 
-1.0 531:1.0 2839:1.0 
-1.0 41:1.0 1803:1.0 
-1.0 12:1.0 2874:1.0 
-1.0 1176:1.0 1537:1.0 
-1.0 53:1.0 2483:1.0 
-1.0 1117:1.0 1598:1.0 
-1.0 1395:1.0 1516:1.0 
-1.0 113:1.0 2504:1.0 
-0.1818939554817012 21:1.0 1888:1.0 
-1.0 1474:1.0 1625:1.0 
-1.0 851:1.0 2480:1.0 
-1.0 754:1.0 2747:1.0 
-0.11167164175592809 594:1.0 2172:1.0 
-0.5559739890296214 983:1.0 2987:1.0 
-1.0 881:1.0 1660:1.0 
-1.0 533:1.0 2025:1.0 
-1.0 929:1.0 1930:1.0 
-1.0 957:1.0 2959:1.0 
-1.0 738:1.0 1684:1.0 
-1.0 317:1.0 2990:1.0 
-1.0 304:1.0 1698:1.0 
-1.0 1165:1.0 1667:1.0 
-0.7896058055394963 26:1.0 2922:1.0 
-0.2593285324827886 1424:1.0 1801:1.0 
-1.0 129:1.0 1693:1.0 
-1.0 1123:1.0 1660:1.0 
-1.0 1224:1.0 2364:1.0 
-1.0 60:1.0 1981:1.0 
-1.0 1093:1.0 2330:1.0 
-1.0 1342:1.0 1802:1.0 
-1.0 1397:1.0 2434:1.0 
-0.3887669710227117 318:1.0 2476:1.0 
-1.0 1044:1.0 1761:1.0 
-1.0 135:1.0 2344:1.0 
-1.0 940:1.0 2391:1.0 
-1.0 1327:1.0 2720:1.0 
-1.0 1187:1.0 1809:1.0 
-1.0 193:1.0 2420:1.0 
-1.0 1254:1.0 2100:1.0 
-1.0 463:1.0 2307:1.0 
-1.0 722:1.0 1639:1.0 
-0.9994534899019998 1491:1.0 1842:1.0 
-1.0 1112:1.0 1847:1.0 
-1.0 662:1.0 1761:1.0 
-1.0 263:1.0 2475:1.0 
-1.0 1426:1.0 2250:1.0 
-1.0 718:1.0 1942:1.0 
-1.0 205:1.0 2630:1.0 
-1.0 280:1.0 1992:1.0 
-0.2592672197819643 533:1.0 1681:1.0 
-0.3887783139962583 198:1.0 2891:1.0 
-1.0 920:1.0 2861:1.0 
-1.0 1105:1.0 1515:1.0 
-1.0 1473:1.0 1870:1.0 
-1.0 258:1.0 1647:1.0 
-1.0 812:1.0 2184:1.0 
-1.0 977:1.0 2086:1.0 
-1.0 1463:1.0 1926:1.0 
-1.0 1212:1.0 1904:1.0 
-1.0 9:1.0 1882:1.0 
-1.0 1099:1.0 2982:1.0 
-1.0 725:1.0 2510:1.0 
-1.0 557:1.0 2481:1.0 
-1.0 907:1.0 1714:1.0 
-1.0 198:1.0 2910:1.0 
-1.0 705:1.0 1885:1.0 
-1.0 359:1.0 2853:1.0 
-1.0 86:1.0 2661:1.0 
-1.0 1300:1.0 2982:1.0 
-1.0 94:1.0 2268:1.0 
-1.0 1245:1.0 2029:1.0 
-0.7556011628934759 1266:1.0 2820:1.0 
-0.3890513859061484 519:1.0 2521:1.0 
-0.7589307881237645 137:1.0 1557:1.0 
-1.0 893:1.0 2910:1.0 
-1.0 1202:1.0 2327:1.0 
-1.0 135:1.0 1743:1.0 
-1.0 10:1.0 2637:1.0 
-1.0 1008:1.0 2316:1.0 
-1.0 67:1.0 2460:1.0 
-1.0 631:1.0 2765:1.0 
-1.0 419:1.0 2323:1.0 
-1.0 800:1.0 2775:1.0 
-1.0 748:1.0 1536:1.0 
-0.4770484163498695 980:1.0 1807:1.0 
-1.0 1197:1.0 2841:1.0 
-1.0 326:1.0 2122:1.0 
-1.0 798:1.0 1502:1.0 
-1.0 1287:1.0 1593:1.0 
-1.0 1087:1.0 2993:1.0 
-1.0 1365:1.0 2816:1.0 
-1.0 600:1.0 1527:1.0 
-1.0 67:1.0 2274:1.0 
-1.0 824:1.0 1942:1.0 
-1.0 1335:1.0 2528:1.0 
-1.0 834:1.0 2888:1.0 
-1.0 806:1.0 1998:1.0 
-1.0 246:1.0 1869:1.0 
-1.0 1077:1.0 2781:1.0 
-1.0 252:1.0 1521:1.0 
-1.0 684:1.0 2285:1.0 
-1.0 311:1.0 2935:1.0 
-1.0 926:1.0 1623:1.0 
-1.0 1319:1.0 2864:1.0 
-1.0 138:1.0 2202:1.0 
-1.0 137:1.0 2632:1.0 
-1.0 1270:1.0 2934:1.0 
-1.0 598:1.0 2392:1.0 
-1.0 334:1.0 2317:1.0 
-1.0 587:1.0 2972:1.0 
-1.0 742:1.0 2378:1.0 
-1.0 357:1.0 1521:1.0 
-1.0 281:1.0 2167:1.0 
-1.0 126:1.0 1790:1.0 
-1.0 107:1.0 1709:1.0 
-1.0 813:1.0 1625:1.0 
-1.0 1464:1.0 2270:1.0 
-1.0 878:1.0 1939:1.0 
-0.5106357712042346 827:1.0 1693:1.0 
-1.0 515:1.0 1506:1.0 
-1.0 596:1.0 2804:1.0 
-1.0 1481:1.0 2636:1.0 
-1.0 237:1.0 1657:1.0 
-1.0 1141:1.0 2493:1.0 
-0.7448059322686129 540:1.0 2631:1.0 
-1.0 741:1.0 2920:1.0 
-1.0 551:1.0 2533:1.0 
-0.5113684610263244 228:1.0 2496:1.0 
-1.0 397:1.0 2392:1.0 
-1.0 1000:1.0 2105:1.0 
-1.0 1360:1.0 2089:1.0 
-1.0 346:1.0 2505:1.0 
-1.0 198:1.0 1796:1.0 
-1.0 1034:1.0 2356:1.0 
-1.0 672:1.0 2810:1.0 
-1.0 407:1.0 1772:1.0 
-1.0 301:1.0 1767:1.0 
-1.0 340:1.0 2781:1.0 
-1.0 734:1.0 2740:1.0 
-1.0 1359:1.0 1792:1.0 
-0.3887750108135807 340:1.0 1675:1.0 
-1.0 333:1.0 1778:1.0 
-1.0 1284:1.0 2551:1.0 
-0.9259159092806835 387:1.0 1524:1.0 
-0.5108654627490352 311:1.0 2335:1.0 
-1.0 458:1.0 2710:1.0 
-1.0 811:1.0 1922:1.0 
-1.0 1057:1.0 2439:1.0 
-1.0 1412:1.0 2280:1.0 
-1.0 1170:1.0 1820:1.0 
-0.8886168628813784 1051:1.0 2227:1.0 
-1.0 1343:1.0 2040:1.0 
-1.0 427:1.0 2101:1.0 
-1.0 794:1.0 2937:1.0 
-0.5888509477143997 710:1.0 1647:1.0 
-1.0 675:1.0 2640:1.0 
-1.0 72:1.0 2551:1.0 
-1.0 14:1.0 2052:1.0 
-1.0 492:1.0 1915:1.0 
-1.0 1169:1.0 2990:1.0 
-1.0 971:1.0 2550:1.0 
-1.0 525:1.0 1816:1.0 
-1.0 313:1.0 1588:1.0 
-0.999511196148662 362:1.0 2282:1.0 
-1.0 740:1.0 1594:1.0 
-1.0 890:1.0 2303:1.0 
-1.0 1245:1.0 1867:1.0 
-1.0 255:1.0 1900:1.0 
-1.0 1235:1.0 2462:1.0 
-1.0 999:1.0 2189:1.0 
-1.0 584:1.0 2144:1.0 
-1.0 1148:1.0 1594:1.0 
-1.0 187:1.0 2479:1.0 
-1.0 371:1.0 1535:1.0 
-0.25925189511733404 700:1.0 1586:1.0 
-1.0 257:1.0 2584:1.0 
-1.0 47:1.0 2366:1.0 
-1.0 1067:1.0 2475:1.0 
-1.0 1190:1.0 2681:1.0 
-1.0 186:1.0 2021:1.0 
-1.0 565:1.0 2102:1.0 
-0.8885797143953333 1471:1.0 2964:1.0 
-1.0 992:1.0 2067:1.0 
-1.0 1405:1.0 2495:1.0 
-1.0 645:1.0 2236:1.0 
-1.0 1299:1.0 2868:1.0 
-1.0 1142:1.0 1766:1.0 
-1.0 170:1.0 2382:1.0 
-1.0 425:1.0 2298:1.0 
-1.0 846:1.0 1943:1.0 
-1.0 1216:1.0 2482:1.0 
-1.0 1270:1.0 1857:1.0 
-1.0 27:1.0 1940:1.0 
-1.0 610:1.0 1731:1.0 
-1.0 534:1.0 1744:1.0 
-1.0 1376:1.0 2917:1.0 
-1.0 1452:1.0 2735:1.0 
-1.0 530:1.0 1769:1.0 
-1.0 267:1.0 1657:1.0 
-1.0 792:1.0 1919:1.0 
-0.8889151179282464 1058:1.0 1944:1.0 
-0.8888119014665047 1131:1.0 1750:1.0 
-1.0 1060:1.0 2485:1.0 
-1.0 406:1.0 1921:1.0 
-1.0 279:1.0 1534:1.0 
-1.0 503:1.0 2840:1.0 
-1.0 356:1.0 2632:1.0 
-1.0 1345:1.0 2104:1.0 
-1.0 1239:1.0 1727:1.0 
-1.0 1390:1.0 2607:1.0 
-1.0 907:1.0 2537:1.0 
-1.0 962:1.0 2100:1.0 
-1.0 931:1.0 2823:1.0 
-1.0 198:1.0 2963:1.0 
-1.0 956:1.0 1799:1.0 
-1.0 218:1.0 2138:1.0 
-1.0 1303:1.0 2895:1.0 
-1.0 894:1.0 2575:1.0 
-1.0 1187:1.0 2430:1.0 
-0.3887679501653604 382:1.0 2613:1.0 
-1.0 1244:1.0 1999:1.0 
-1.0 1446:1.0 2020:1.0 
-1.0 1279:1.0 1745:1.0 
-1.0 861:1.0 1997:1.0 
-0.925806995564881 788:1.0 1873:1.0 
-1.0 217:1.0 2946:1.0 
-0.8887756448498089 1112:1.0 2870:1.0 
-1.0 817:1.0 1883:1.0 
-1.0 1200:1.0 2760:1.0 
-1.0 32:1.0 2645:1.0 
-1.0 1385:1.0 2049:1.0 
-1.0 159:1.0 2809:1.0 
-1.0 38:1.0 2036:1.0 
-1.0 452:1.0 2410:1.0 
-1.0 1461:1.0 2862:1.0 
-1.0 551:1.0 1658:1.0 
-1.0 857:1.0 1628:1.0 
-0.8889364532908826 241:1.0 2323:1.0 
-1.0 1474:1.0 1923:1.0 
-1.0 179:1.0 1523:1.0 
-1.0 1180:1.0 1590:1.0 
-1.0 776:1.0 1859:1.0 
-1.0 312:1.0 2012:1.0 
-1.0 568:1.0 2791:1.0 
-0.8889019605114259 741:1.0 1659:1.0 
-1.0 1423:1.0 1741:1.0 
-1.0 1286:1.0 1541:1.0 
-1.0 244:1.0 1918:1.0 
-1.0 73:1.0 1678:1.0 
-1.0 724:1.0 2805:1.0 
-1.0 790:1.0 2162:1.0 
-1.0 1194:1.0 1651:1.0 
-1.0 1122:1.0 1996:1.0 
-1.0 296:1.0 1944:1.0 
-1.0 1479:1.0 2668:1.0 
-1.0 160:1.0 2594:1.0 
-1.0 45:1.0 2719:1.0 
-0.8892523416795256 362:1.0 2161:1.0 
-1.0 1127:1.0 2154:1.0 
-1.0 1441:1.0 2363:1.0 
-1.0 893:1.0 2893:1.0 
-1.0 1291:1.0 2438:1.0 
-0.47573649898740417 998:1.0 1979:1.0 
-1.0 1438:1.0 2537:1.0 
-1.0 491:1.0 1525:1.0 
-1.0 553:1.0 2954:1.0 
-1.0 294:1.0 1936:1.0 
-1.0 1249:1.0 2962:1.0 
-1.0 1157:1.0 1860:1.0 
-1.0 165:1.0 1901:1.0 
-1.0 667:1.0 2683:1.0 
-1.0 259:1.0 1936:1.0 
-1.0 644:1.0 1711:1.0 
-1.0 1290:1.0 2844:1.0 
-1.0 1280:1.0 1794:1.0 
-1.0 1281:1.0 1500:1.0 
-1.0 1241:1.0 2284:1.0 
-1.0 1234:1.0 1774:1.0 
-1.0 333:1.0 2253:1.0 
-1.0 758:1.0 2521:1.0 
-1.0 421:1.0 2797:1.0 
-1.0 360:1.0 1648:1.0 
-1.0 1137:1.0 2227:1.0 
-0.7563348707487281 724:1.0 2830:1.0 
-1.0 1234:1.0 2162:1.0 
-1.0 788:1.0 2837:1.0 
-1.0 61:1.0 2793:1.0 
-1.0 171:1.0 2569:1.0 
-1.0 416:1.0 2755:1.0 
-1.0 766:1.0 2649:1.0 
-1.0 57:1.0 2566:1.0 
-0.8886888290096503 450:1.0 2644:1.0 
-1.0 5:1.0 1573:1.0 
-1.0 1131:1.0 1931:1.0 
-1.0 857:1.0 2425:1.0 
-1.0 80:1.0 1955:1.0 
-1.0 623:1.0 2952:1.0 
-1.0 601:1.0 1596:1.0 
-1.0 1115:1.0 2104:1.0 
-1.0 482:1.0 1950:1.0 
-1.0 50:1.0 2834:1.0 
-1.0 1001:1.0 2045:1.0 
-1.0 980:1.0 2075:1.0 
-1.0 86:1.0 2295:1.0 
-0.8886707524544912 149:1.0 1667:1.0 
-1.0 627:1.0 2138:1.0 
-1.0 336:1.0 2725:1.0 
-1.0 1310:1.0 2389:1.0 
-1.0 480:1.0 1924:1.0 
-1.0 671:1.0 2685:1.0 
-1.0 724:1.0 2689:1.0 
-1.0 818:1.0 2883:1.0 
-1.0 982:1.0 2013:1.0 
-0.8887147991138611 1139:1.0 2027:1.0 
-1.0 1398:1.0 1988:1.0 
-1.0 198:1.0 2561:1.0 
-1.0 249:1.0 2030:1.0 
-1.0 1073:1.0 1511:1.0 
-0.8887733484559931 1060:1.0 1576:1.0 
-1.0 1199:1.0 1644:1.0 
-1.0 700:1.0 2724:1.0 
-1.0 784:1.0 1616:1.0 
-1.0 1257:1.0 2898:1.0 
-0.7510665550667084 1215:1.0 1653:1.0 
-1.0 263:1.0 2524:1.0 
-1.0 983:1.0 2152:1.0 
-1.0 379:1.0 2276:1.0 
-1.0 227:1.0 1994:1.0 
-1.0 1170:1.0 2522:1.0 
-1.0 657:1.0 1958:1.0 
-1.0 21:1.0 2886:1.0 
-1.0 490:1.0 1905:1.0 
-1.0 1014:1.0 1635:1.0 
-1.0 274:1.0 2115:1.0 
-1.0 943:1.0 2716:1.0 
-1.0 1268:1.0 2248:1.0 
-0.8886554573917264 1260:1.0 2085:1.0 
-1.0 1491:1.0 2859:1.0 
-1.0 821:1.0 1755:1.0 
-1.0 1058:1.0 2286:1.0 
-1.0 386:1.0 2512:1.0 
-1.0 441:1.0 2832:1.0 
-0.762499040720227 1215:1.0 2906:1.0 
-1.0 957:1.0 2002:1.0 
-1.0 916:1.0 1753:1.0 
-1.0 352:1.0 1733:1.0 
-1.0 540:1.0 2119:1.0 
-1.0 319:1.0 2527:1.0 
-1.0 472:1.0 1853:1.0 
-1.0 843:1.0 2769:1.0 
-1.0 405:1.0 2038:1.0 
-1.0 176:1.0 1874:1.0 
-1.0 1145:1.0 2787:1.0 
-1.0 1269:1.0 1974:1.0 
-1.0 38:1.0 2176:1.0 
-1.0 1266:1.0 2965:1.0 
-1.0 1276:1.0 2292:1.0 
-1.0 1116:1.0 2172:1.0 
-1.0 390:1.0 2438:1.0 
-1.0 736:1.0 1863:1.0 
-1.0 301:1.0 2790:1.0 
-1.0 287:1.0 2573:1.0 
-1.0 1171:1.0 2982:1.0 
-1.0 773:1.0 2769:1.0 
-1.0 890:1.0 2394:1.0 
-1.0 118:1.0 2028:1.0 
-1.0 874:1.0 2225:1.0 
-1.0 116:1.0 1566:1.0 
-1.0 523:1.0 2014:1.0 
-0.444285319555594 927:1.0 2364:1.0 
-1.0 1436:1.0 2562:1.0 
-0.9996701464677078 913:1.0 2521:1.0 
-1.0 1238:1.0 1928:1.0 
-1.0 1046:1.0 2241:1.0 
-1.0 1118:1.0 1726:1.0 
-1.0 715:1.0 2045:1.0 
-1.0 107:1.0 1917:1.0 
-1.0 629:1.0 2329:1.0 
-1.0 1309:1.0 2199:1.0 
-1.0 383:1.0 2600:1.0 
-1.0 1138:1.0 2172:1.0 
-1.0 768:1.0 2112:1.0 
-1.0 757:1.0 2493:1.0 
-1.0 314:1.0 2808:1.0 
-1.0 149:1.0 2649:1.0 
-1.0 1351:1.0 2316:1.0 
-1.0 899:1.0 1722:1.0 
-1.0 1247:1.0 2382:1.0 
-1.0 326:1.0 2572:1.0 
-1.0 75:1.0 2967:1.0 
-0.9257620825624437 1442:1.0 2092:1.0 
-1.0 83:1.0 2412:1.0 
-0.3106774864097195 502:1.0 2924:1.0 
-1.0 1430:1.0 2274:1.0 
-1.0 586:1.0 2387:1.0 
-0.888974308589803 1052:1.0 2448:1.0 
-1.0 806:1.0 1686:1.0 
-1.0 1424:1.0 2910:1.0 
-1.0 884:1.0 2037:1.0 
-1.0 1087:1.0 2978:1.0 
-0.7551895540822273 777:1.0 2159:1.0 
-1.0 802:1.0 2810:1.0 
-0.25887874454735516 61:1.0 2190:1.0 
-0.9111645744571893 1324:1.0 2552:1.0 
-0.5106443499468094 258:1.0 1614:1.0 
-1.0 1244:1.0 2759:1.0 
-0.8889756803490259 1124:1.0 2501:1.0 
-1.0 1458:1.0 2678:1.0 
-1.0 191:1.0 1668:1.0 
-0.8888355226954445 527:1.0 2357:1.0 
-1.0 217:1.0 1572:1.0 
-1.0 250:1.0 2424:1.0 
-1.0 250:1.0 2920:1.0 
-1.0 1244:1.0 2719:1.0 
-1.0 1162:1.0 2455:1.0 
-1.0 150:1.0 2160:1.0 
-1.0 304:1.0 2547:1.0 
-0.8888785688841314 1343:1.0 1562:1.0 
-1.0 1032:1.0 2058:1.0 
-1.0 1448:1.0 2894:1.0 
-1.0 1095:1.0 1571:1.0 
-1.0 1433:1.0 2362:1.0 
-1.0 50:1.0 1677:1.0 
-1.0 816:1.0 2259:1.0 
-0.7225774989053226 805:1.0 2953:1.0 
-1.0 1398:1.0 2412:1.0 
-1.0 821:1.0 1528:1.0 
-1.0 1443:1.0 2341:1.0 
-1.0 504:1.0 2047:1.0 
-1.0 712:1.0 2141:1.0 
-1.0 321:1.0 2767:1.0 
-1.0 913:1.0 2975:1.0 
-0.7894358896907763 26:1.0 2816:1.0 
-1.0 235:1.0 1602:1.0 
-1.0 269:1.0 2906:1.0 
-1.0 535:1.0 2949:1.0 
-0.888930568109572 153:1.0 1763:1.0 
-1.0 834:1.0 2867:1.0 
-1.0 1210:1.0 1895:1.0 
-1.0 74:1.0 2140:1.0 
-1.0 163:1.0 1680:1.0 
-0.5115720877040879 555:1.0 2606:1.0 
-1.0 1436:1.0 2995:1.0 
-1.0 649:1.0 2350:1.0 
-1.0 693:1.0 1624:1.0 
-0.15589932222672465 1362:1.0 2924:1.0 
-1.0 698:1.0 2553:1.0 
-1.0 1039:1.0 2638:1.0 
-0.002166919927378358 613:1.0 2069:1.0 
-1.0 998:1.0 2154:1.0 
-0.7547299190416787 555:1.0 2830:1.0 
-1.0 738:1.0 1897:1.0 
-1.0 353:1.0 1903:1.0 
-1.0 1009:1.0 1574:1.0 
-1.0 1030:1.0 2190:1.0 
-1.0 974:1.0 1516:1.0 
-1.0 355:1.0 2929:1.0 
-1.0 846:1.0 2381:1.0 
-1.0 504:1.0 2976:1.0 
-1.0 75:1.0 2640:1.0 
-1.0 1326:1.0 2566:1.0 
-1.0 1118:1.0 2539:1.0 
-0.8889962156035836 1287:1.0 2702:1.0 
-1.0 417:1.0 2029:1.0 
-0.5266494683591676 267:1.0 2002:1.0 
-1.0 23:1.0 1614:1.0 
-1.0 500:1.0 2263:1.0 
-1.0 674:1.0 2118:1.0 
-1.0 483:1.0 2284:1.0 
-1.0 269:1.0 2083:1.0 
-0.8887964639369152 1495:1.0 1725:1.0 
-1.0 1034:1.0 2324:1.0 
-1.0 1114:1.0 2143:1.0 
-1.0 1354:1.0 2782:1.0 
-1.0 1330:1.0 2901:1.0 
-1.0 1053:1.0 2836:1.0 
-1.0 906:1.0 1932:1.0 
-1.0 566:1.0 1560:1.0 
-1.0 1158:1.0 1786:1.0 
-1.0 1072:1.0 1766:1.0 
-1.0 197:1.0 2607:1.0 
-1.0 228:1.0 2576:1.0 
-1.0 1328:1.0 1526:1.0 
-1.0 900:1.0 2347:1.0 
-1.0 879:1.0 2666:1.0 
-1.0 1035:1.0 2427:1.0 
-1.0 1138:1.0 2211:1.0 
-1.0 1083:1.0 1545:1.0 
-1.0 366:1.0 2399:1.0 
-1.0 1369:1.0 2472:1.0 
-1.0 1216:1.0 2099:1.0 
-1.0 760:1.0 1675:1.0 
-1.0 997:1.0 2524:1.0 
-1.0 659:1.0 2655:1.0 
-1.0 328:1.0 2843:1.0 
-1.0 1260:1.0 2077:1.0 
-1.0 1112:1.0 1778:1.0 
-1.0 814:1.0 2718:1.0 
-1.0 528:1.0 2743:1.0 
-1.0 55:1.0 2241:1.0 
-1.0 457:1.0 2592:1.0 
-1.0 164:1.0 2049:1.0 
-1.0 292:1.0 1837:1.0 
-0.8888112719769978 652:1.0 2185:1.0 
-1.0 772:1.0 2696:1.0 
-1.0 97:1.0 2979:1.0 
-1.0 579:1.0 1692:1.0 
-1.0 1382:1.0 2625:1.0 
-1.0 157:1.0 2751:1.0 
-1.0 78:1.0 2782:1.0 
-1.0 536:1.0 2900:1.0 
-1.0 459:1.0 2868:1.0 
-1.0 145:1.0 2230:1.0 
-1.0 1366:1.0 1818:1.0 
-1.0 234:1.0 2299:1.0 
-1.0 1424:1.0 1894:1.0 
-1.0 732:1.0 2631:1.0 
-1.0 1467:1.0 1715:1.0 
-1.0 966:1.0 1872:1.0 
-1.0 773:1.0 1979:1.0 
-1.0 1225:1.0 2960:1.0 
-1.0 598:1.0 2564:1.0 
-1.0 8:1.0 1823:1.0 
-1.0 1421:1.0 2073:1.0 
-1.0 1430:1.0 1925:1.0 
-1.0 358:1.0 1734:1.0 
-1.0 176:1.0 2176:1.0 
-0.4235883394431167 169:1.0 2755:1.0 
-1.0 1403:1.0 2695:1.0 
-1.0 657:1.0 2626:1.0 
-0.8887389444083031 950:1.0 1950:1.0 
-1.0 49:1.0 2097:1.0 
-1.0 1056:1.0 2110:1.0 
-1.0 173:1.0 1705:1.0 
-1.0 589:1.0 2720:1.0 
-1.0 148:1.0 2310:1.0 
-1.0 1165:1.0 2165:1.0 
-1.0 903:1.0 1900:1.0 
-1.0 594:1.0 2331:1.0 
-1.0 16:1.0 1969:1.0 
-1.0 1298:1.0 1948:1.0 
-1.0 1253:1.0 2995:1.0 
-0.925891847694752 898:1.0 2010:1.0 
-1.0 1444:1.0 2803:1.0 
-1.0 266:1.0 2897:1.0 
-1.0 988:1.0 1608:1.0 
-0.016421457251502347 1194:1.0 2631:1.0 
-1.0 166:1.0 2402:1.0 
-1.0 1292:1.0 2501:1.0 
-0.8885763939516074 1040:1.0 1596:1.0 
-0.9257329909997972 959:1.0 2261:1.0 
-1.0 1216:1.0 1750:1.0 
-1.0 1258:1.0 2227:1.0 
-1.0 235:1.0 2791:1.0 
-1.0 1192:1.0 2717:1.0 
-1.0 658:1.0 1627:1.0 
-1.0 1418:1.0 2085:1.0 
-1.0 1265:1.0 2534:1.0 
-1.0 360:1.0 2541:1.0 
-1.0 743:1.0 2092:1.0 
-1.0 1266:1.0 1532:1.0 
-0.38916575825184035 1491:1.0 2455:1.0 
-1.0 1255:1.0 2377:1.0 
-1.0 1234:1.0 1775:1.0 
-0.38872127507989074 972:1.0 2838:1.0 
-1.0 231:1.0 2914:1.0 
-1.0 733:1.0 2069:1.0 
-1.0 1181:1.0 2703:1.0 
-1.0 1468:1.0 2075:1.0 
-1.0 373:1.0 2062:1.0 
-1.0 329:1.0 1858:1.0 
-1.0 1126:1.0 1541:1.0 
-1.0 449:1.0 2502:1.0 
-1.0 1262:1.0 1808:1.0 
-1.0 868:1.0 2122:1.0 
-1.0 1065:1.0 1812:1.0 
-1.0 857:1.0 2967:1.0 
-1.0 656:1.0 1704:1.0 
-1.0 1488:1.0 1956:1.0 
-1.0 36:1.0 2293:1.0 
-1.0 514:1.0 1716:1.0 
-1.0 832:1.0 2534:1.0 
-1.0 1191:1.0 1530:1.0 
-1.0 37:1.0 1826:1.0 
-1.0 280:1.0 2620:1.0 
-1.0 786:1.0 1799:1.0 
-1.0 1449:1.0 2264:1.0 
-1.0 398:1.0 1743:1.0 
-1.0 1431:1.0 2252:1.0 
-1.0 52:1.0 2083:1.0 
-1.0 1083:1.0 2354:1.0 
-1.0 1154:1.0 2984:1.0 
-0.11147244818066393 186:1.0 2620:1.0 
-1.0 424:1.0 1557:1.0 
-1.0 531:1.0 2453:1.0 
-1.0 515:1.0 2814:1.0 
-1.0 1313:1.0 2502:1.0 
-0.9113292875755115 1033:1.0 2552:1.0 
-1.0 470:1.0 2568:1.0 
-1.0 696:1.0 2179:1.0 
-1.0 991:1.0 2202:1.0 
-1.0 597:1.0 1878:1.0 
-1.0 1425:1.0 2596:1.0 
-1.0 984:1.0 2448:1.0 
-1.0 793:1.0 1991:1.0 
-1.0 181:1.0 2145:1.0 
-0.8888900517965946 379:1.0 2990:1.0 
-1.0 524:1.0 1824:1.0 
-1.0 1405:1.0 2675:1.0 
-1.0 720:1.0 2663:1.0 
-0.3888500489359067 889:1.0 1673:1.0 
-0.11620814185488168 691:1.0 1888:1.0 
-1.0 57:1.0 2300:1.0 
-1.0 416:1.0 1690:1.0 
-1.0 777:1.0 2164:1.0 
-0.4091863468688906 26:1.0 2525:1.0 
-1.0 895:1.0 2224:1.0 
-1.0 54:1.0 1693:1.0 
-0.8887013465166156 246:1.0 2347:1.0 
-0.07757524704670674 1185:1.0 1832:1.0 
-1.0 478:1.0 2093:1.0 
-1.0 832:1.0 1980:1.0 
-1.0 409:1.0 1547:1.0 
-1.0 79:1.0 2113:1.0 
-1.0 622:1.0 2656:1.0 
-0.638996178135109 1198:1.0 1572:1.0 
-1.0 851:1.0 1892:1.0 
-1.0 689:1.0 2048:1.0 
-1.0 1288:1.0 2046:1.0 
-1.0 17:1.0 2928:1.0 
-1.0 1314:1.0 2407:1.0 
-1.0 764:1.0 2671:1.0 
-0.13860455830167712 1234:1.0 1625:1.0 
-1.0 1197:1.0 2428:1.0 
-1.0 1235:1.0 2821:1.0 
-1.0 630:1.0 2351:1.0 
-1.0 78:1.0 1677:1.0 
-0.8440672170464772 265:1.0 2917:1.0 
-1.0 1465:1.0 1881:1.0 
-0.9258438945997204 14:1.0 1539:1.0 
-1.0 1047:1.0 1666:1.0 
-1.0 571:1.0 2433:1.0 
-1.0 745:1.0 1946:1.0 
-1.0 48:1.0 2059:1.0 
-1.0 709:1.0 2471:1.0 
-1.0 950:1.0 2110:1.0 
-1.0 859:1.0 2893:1.0 
-1.0 715:1.0 1595:1.0 
-1.0 140:1.0 2754:1.0 
-1.0 968:1.0 2202:1.0 
-1.0 1111:1.0 1630:1.0 
-1.0 578:1.0 1518:1.0 
-1.0 613:1.0 2890:1.0 
-1.0 862:1.0 1585:1.0 
-1.0 664:1.0 2943:1.0 
-1.0 106:1.0 2432:1.0 
-1.0 1280:1.0 2151:1.0 
-1.0 1074:1.0 2803:1.0 
-1.0 978:1.0 2696:1.0 
-1.0 194:1.0 2002:1.0 
-1.0 947:1.0 1740:1.0 
-1.0 540:1.0 2830:1.0 
-1.0 507:1.0 2681:1.0 
-1.0 1221:1.0 2893:1.0 
-1.0 305:1.0 1832:1.0 
-1.0 247:1.0 2248:1.0 
-0.8888961937540444 448:1.0 1909:1.0 
-1.0 529:1.0 2104:1.0 
-1.0 100:1.0 1555:1.0 
-1.0 112:1.0 2809:1.0 
-0.3885627194905289 256:1.0 2346:1.0 
-1.0 381:1.0 2658:1.0 
-1.0 1094:1.0 2669:1.0 
-1.0 133:1.0 2597:1.0 
-1.0 577:1.0 2676:1.0 
-1.0 688:1.0 1566:1.0 
-1.0 620:1.0 2081:1.0 
-1.0 43:1.0 2618:1.0 
-1.0 31:1.0 2912:1.0 
-1.0 352:1.0 1536:1.0 
-1.0 1109:1.0 1703:1.0 
-1.0 50:1.0 2641:1.0 
-1.0 1039:1.0 1967:1.0 
-1.0 1225:1.0 2108:1.0 
-1.0 729:1.0 2009:1.0 
-0.9260760549848956 833:1.0 1794:1.0 
-1.0 318:1.0 2654:1.0 
-1.0 426:1.0 2196:1.0 
-1.0 1363:1.0 2030:1.0 
-1.0 1228:1.0 2075:1.0 
-1.0 151:1.0 2838:1.0 
-1.0 1205:1.0 2667:1.0 
-1.0 1:1.0 2768:1.0 
-1.0 368:1.0 2842:1.0 
-1.0 1035:1.0 2803:1.0 
-1.0 1059:1.0 2676:1.0 
-1.0 680:1.0 1578:1.0 
-1.0 1103:1.0 2767:1.0 
-1.0 1378:1.0 2940:1.0 
-0.25901803626776243 46:1.0 1681:1.0 
-1.0 611:1.0 2903:1.0 
-1.0 31:1.0 2591:1.0 
-1.0 423:1.0 2964:1.0 
-1.0 556:1.0 2438:1.0 
-1.0 649:1.0 3000:1.0 
-1.0 1444:1.0 2668:1.0 
-1.0 920:1.0 2268:1.0 
-1.0 831:1.0 1801:1.0 
-1.0 989:1.0 2089:1.0 
-1.0 245:1.0 2276:1.0 
-1.0 864:1.0 2823:1.0 
-1.0 301:1.0 2280:1.0 
-1.0 366:1.0 2643:1.0 
-1.0 365:1.0 2078:1.0 
-1.0 632:1.0 2091:1.0 
-1.0 287:1.0 2629:1.0 
-1.0 8:1.0 1551:1.0 
-0.7559444414395387 827:1.0 2159:1.0 
-1.0 1340:1.0 1662:1.0 
-0.8886376872148153 857:1.0 2698:1.0 
-1.0 356:1.0 2217:1.0 
-1.0 185:1.0 2629:1.0 
-1.0 841:1.0 1716:1.0 
-0.888612518838447 1225:1.0 2810:1.0 
-1.0 1453:1.0 2169:1.0 
-1.0 1109:1.0 2310:1.0 
-1.0 1242:1.0 2437:1.0 
-1.0 469:1.0 2529:1.0 
-1.0 1022:1.0 2686:1.0 
-1.0 481:1.0 2757:1.0 
-1.0 1051:1.0 2374:1.0 
-1.0 1160:1.0 2490:1.0 
-1.0 112:1.0 1700:1.0 
-0.8888199105858803 1250:1.0 2670:1.0 
-1.0 55:1.0 2164:1.0 
-1.0 685:1.0 1792:1.0 
-1.0 1476:1.0 1756:1.0 
-1.0 1178:1.0 1747:1.0 
-1.0 134:1.0 1857:1.0 
-1.0 578:1.0 1973:1.0 
-1.0 1052:1.0 2317:1.0 
-1.0 56:1.0 2422:1.0 
-1.0 1465:1.0 2539:1.0 
-1.0 674:1.0 2745:1.0 
-1.0 510:1.0 2245:1.0 
-1.0 1:1.0 2703:1.0 
-1.0 189:1.0 2484:1.0 
-1.0 713:1.0 2772:1.0 
-1.0 799:1.0 2193:1.0 
-0.8886370762372776 1228:1.0 2260:1.0 
-1.0 1271:1.0 2940:1.0 
-1.0 551:1.0 2872:1.0 
-1.0 220:1.0 1672:1.0 
-1.0 1183:1.0 1793:1.0 
-1.0 69:1.0 2158:1.0 
-1.0 1382:1.0 1947:1.0 
-1.0 153:1.0 2737:1.0 
-1.0 958:1.0 1888:1.0 
-1.0 312:1.0 2089:1.0 
-1.0 1109:1.0 2686:1.0 
-1.0 256:1.0 1966:1.0 
-1.0 1244:1.0 2138:1.0 
-1.0 437:1.0 2924:1.0 
-1.0 1495:1.0 2579:1.0 
-1.0 1028:1.0 2855:1.0 
-0.6367547331463905 613:1.0 1932:1.0 
-1.0 1010:1.0 1797:1.0 
-1.0 1009:1.0 2205:1.0 
-1.0 476:1.0 1694:1.0 
-1.0 241:1.0 2076:1.0 
-1.0 505:1.0 2259:1.0 
-1.0 1131:1.0 2630:1.0 
-1.0 701:1.0 1691:1.0 
-1.0 1457:1.0 2590:1.0 
-1.0 349:1.0 2975:1.0 
-1.0 1378:1.0 2126:1.0 
-0.9259016592049321 825:1.0 2004:1.0 
-1.0 569:1.0 2195:1.0 
-1.0 801:1.0 2752:1.0 
-1.0 336:1.0 1854:1.0 
-1.0 377:1.0 2362:1.0 
-1.0 1449:1.0 2924:1.0 
-1.0 1092:1.0 2114:1.0 
-1.0 649:1.0 1504:1.0 
-1.0 1299:1.0 1832:1.0 
-1.0 1132:1.0 1537:1.0 
-1.0 1348:1.0 2072:1.0 
-1.0 11:1.0 2141:1.0 
-1.0 1319:1.0 1638:1.0 
-1.0 1209:1.0 1871:1.0 
-1.0 768:1.0 2088:1.0 
-1.0 82:1.0 2187:1.0 
-1.0 1478:1.0 1637:1.0 
-1.0 1096:1.0 2153:1.0 
-1.0 726:1.0 2487:1.0 
-1.0 583:1.0 2395:1.0 
-1.0 1364:1.0 2642:1.0 
-1.0 469:1.0 1807:1.0 
-1.0 1369:1.0 2979:1.0 
-1.0 1476:1.0 2597:1.0 
-1.0 1134:1.0 1868:1.0 
-1.0 325:1.0 2375:1.0 
-0.9256916258988801 336:1.0 1924:1.0 
-1.0 875:1.0 1766:1.0 
-1.0 744:1.0 2277:1.0 
-0.9111296673608377 201:1.0 2894:1.0 
-1.0 475:1.0 2471:1.0 
-1.0 1216:1.0 2674:1.0 
-1.0 430:1.0 2998:1.0 
-1.0 837:1.0 2019:1.0 
-0.8660981101054014 399:1.0 1853:1.0 
-1.0 700:1.0 2499:1.0 
-1.0 161:1.0 1519:1.0 
-0.310681251491313 423:1.0 2280:1.0 
-0.25929096078919855 1286:1.0 2710:1.0 
-1.0 554:1.0 2949:1.0 
-1.0 737:1.0 1718:1.0 
-1.0 292:1.0 2986:1.0 
-1.0 514:1.0 1513:1.0 
-1.0 500:1.0 2383:1.0 
-0.3886871302124836 1457:1.0 1545:1.0 
-1.0 17:1.0 1637:1.0 
-1.0 547:1.0 1824:1.0 
-1.0 879:1.0 2429:1.0 
-1.0 960:1.0 2611:1.0 
-0.6389698548733336 1446:1.0 2515:1.0 
-0.8888163126412009 1089:1.0 2939:1.0 
-1.0 860:1.0 2825:1.0 
-1.0 1240:1.0 2067:1.0 
-1.0 1362:1.0 1548:1.0 
-1.0 1136:1.0 1970:1.0 
-1.0 739:1.0 1789:1.0 
-1.0 865:1.0 1605:1.0 
-1.0 1151:1.0 1993:1.0 
-1.0 265:1.0 2290:1.0 
-1.0 219:1.0 2683:1.0 
-1.0 1019:1.0 2699:1.0 
-0.8887715722141025 937:1.0 2799:1.0 
-1.0 1254:1.0 2804:1.0 
-1.0 762:1.0 2109:1.0 
-1.0 1288:1.0 2521:1.0 
-0.04488650450881246 806:1.0 1853:1.0 
-1.0 796:1.0 1960:1.0 
-1.0 1316:1.0 2377:1.0 
-1.0 363:1.0 1897:1.0 
-1.0 281:1.0 2734:1.0 
-1.0 1259:1.0 1898:1.0 
-1.0 829:1.0 2936:1.0 
-1.0 1333:1.0 2838:1.0 
-1.0 1132:1.0 1507:1.0 
-1.0 1471:1.0 2975:1.0 
-1.0 346:1.0 1529:1.0 
-1.0 167:1.0 2248:1.0 
-1.0 1231:1.0 2222:1.0 
-1.0 374:1.0 2216:1.0 
-1.0 717:1.0 2928:1.0 
-1.0 1119:1.0 2773:1.0 
-1.0 1180:1.0 2113:1.0 
-1.0 1424:1.0 2381:1.0 
-1.0 485:1.0 2576:1.0 
-1.0 1452:1.0 1541:1.0 
-1.0 295:1.0 2022:1.0 
-1.0 184:1.0 1572:1.0 
-1.0 1305:1.0 2015:1.0 
-1.0 1107:1.0 2883:1.0 
-1.0 1091:1.0 2134:1.0 
-1.0 1253:1.0 2080:1.0 
-1.0 776:1.0 1741:1.0 
-1.0 360:1.0 2540:1.0 
-1.0 1123:1.0 2757:1.0 
-1.0 1140:1.0 2288:1.0 
-1.0 1062:1.0 1991:1.0 
-1.0 1396:1.0 2406:1.0 
-1.0 1326:1.0 2322:1.0 
-0.5933925931918568 713:1.0 2745:1.0 
-1.0 648:1.0 2056:1.0 
-0.8887913858554668 400:1.0 1617:1.0 
-1.0 728:1.0 1980:1.0 
-1.0 387:1.0 1875:1.0 
-1.0 1032:1.0 2496:1.0 
-1.0 1358:1.0 2476:1.0 
-1.0 477:1.0 1955:1.0 
-1.0 1397:1.0 2684:1.0 
-1.0 927:1.0 1838:1.0 
-1.0 1198:1.0 2547:1.0 
-1.0 486:1.0 2364:1.0 
-0.9259534734751793 566:1.0 2261:1.0 
-0.05560998189066482 360:1.0 2205:1.0 
-1.0 980:1.0 2506:1.0 
-1.0 1274:1.0 2545:1.0 
-1.0 1365:1.0 2790:1.0 
-1.0 1271:1.0 2382:1.0 
-1.0 5:1.0 2381:1.0 
-1.0 41:1.0 1553:1.0 
-0.5922776366284909 735:1.0 1839:1.0 
-0.4441658276895969 1195:1.0 2179:1.0 
-1.0 898:1.0 2608:1.0 
-1.0 886:1.0 2102:1.0 
-1.0 189:1.0 2013:1.0 
-1.0 1073:1.0 2056:1.0 
-1.0 1189:1.0 2914:1.0 
-1.0 508:1.0 2619:1.0 
-1.0 781:1.0 2716:1.0 
-1.0 250:1.0 2609:1.0 
-1.0 720:1.0 2034:1.0 
-1.0 1046:1.0 2946:1.0 
-1.0 1070:1.0 2391:1.0 
-1.0 1071:1.0 1531:1.0 
-1.0 1444:1.0 1938:1.0 
-1.0 1352:1.0 1652:1.0 
-0.49061924985366046 868:1.0 1769:1.0 
-1.0 543:1.0 2300:1.0 
-1.0 268:1.0 2944:1.0 
-1.0 1337:1.0 2451:1.0 
-1.0 1033:1.0 1894:1.0 
-1.0 1246:1.0 2196:1.0 
-1.0 921:1.0 1732:1.0 
